{"learner":{"attributes":{"scikit_learn":"{\"_estimator_type\": \"classifier\"}"},"feature_names":["annualIncome","existingDebt","loanAmount","employmentYears","age","numPreviousLoans","numDelinquencies"],"feature_types":["int","int","int","int","int","int","int"],"gradient_booster":{"model":{"cats":{"enc":[],"feature_segments":[],"sorted_idx":[]},"gbtree_model_param":{"num_parallel_tree":"1","num_trees":"100"},"iteration_indptr":[0,1,2,3,4,5,6,7,8,9,10,11,12,13,14,15,16,17,18,19,20,21,22,23,24,25,26,27,28,29,30,31,32,33,34,35,36,37,38,39,40,41,42,43,44,45,46,47,48,49,50,51,52,53,54,55,56,57,58,59,60,61,62,63,64,65,66,67,68,69,70,71,72,73,74,75,76,77,78,79,80,81,82,83,84,85,86,87,88,89,90,91,92,93,94,95,96,97,98,99,100],"tree_info":[0,0,0,0,0,0,0,0,0,0,0,0,0,0,0,0,0,0,0,0,0,0,0,0,0,0,0,0,0,0,0,0,0,0,0,0,0,0,0,0,0,0,0,0,0,0,0,0,0,0,0,0,0,0,0,0,0,0,0,0,0,0,0,0,0,0,0,0,0,0,0,0,0,0,0,0,0,0,0,0,0,0,0,0,0,0,0,0,0,0,0,0,0,0,0,0,0,0,0,0],"trees":[{"base_weights":[-5.6497292E-8,6.7025983E-1,-7.950913E-1,1.7408376E0,5.012406E-1,-4.7169864E-2,-9.4185907E-1,-2.4390247E-2,1.9044272E0,3.7473226E-1,1.8562874E0,2.4645251E-1,-8.971554E-1,-3.903096E-1,-1.0498884E0,1.0463121E0,2.2340424E-1,6.50779E-1,-1.25471065E-2,2.2847681E-1,5.135951E-1,-2.672606E-1,1.0536044E0,-1.0227273E-1,-2.4390247E-2,-6.6176474E-1,1.4159292E-1,-1.0741302E0,2.4390241E-2,-4.0485864E-3,1.4220183E-1,9.9112414E-2,3.0515602E-2,3.0534346E-2,-5.802048E-2,9.734513E-2,-2.4390247E-2,-6.1469268E-2,5.1359512E-2,2.2388056E-2,1.3672923E-1,2.1148032E-2,-8.591674E-2,-7.4679635E-2,-1.2165505E-1],"categories":[],"categories_nodes":[],"categories_segments":[],"categories_sizes":[],"default_left":[0,0,0,0,0,0,0,0,0,0,0,0,0,0,0,0,0,0,0,0,0,0,0,0,0,0,0,0,0,0,0,0,0,0,0,0,0,0,0,0,0,0,0,0,0],"id":0,"left_children":[1,3,5,7,9,11,13,-1,15,17,19,21,23,25,27,29,-1,31,33,-1,35,37,39,-1,-1,41,-1,43,-1,-1,-1,-1,-1,-1,-1,-1,-1,-1,-1,-1,-1,-1,-1,-1,-1],"loss_changes":[1.1297858E2,1.9941895E1,1.0600044E1,5.4256477E0,1.6575428E1,4.453894E0,4.4170685E0,0E0,1.6874161E0,9.993298E0,3.630457E0,5.8336773E0,1.2543273E-1,8.223061E0,2.3680573E0,2.4380584E0,0E0,6.114332E0,7.3682146E0,0E0,1.3904325E0,2.7519264E0,1.1019735E0,0E0,0E0,2.5260777E0,0E0,2.1730042E0,0E0,0E0,0E0,0E0,0E0,0E0,0E0,0E0,0E0,0E0,0E0,0E0,0E0,0E0,0E0,0E0,0E0],"parents":[2147483647,0,0,1,1,2,2,3,3,4,4,5,5,6,6,8,8,9,9,10,10,11,11,12,12,13,13,14,14,15,15,17,17,18,18,20,20,21,21,22,22,25,25,27,27],"right_children":[2,4,6,8,10,12,14,-1,16,18,20,22,24,26,28,30,-1,32,34,-1,36,38,40,-1,-1,42,-1,44,-1,-1,-1,-1,-1,-1,-1,-1,-1,-1,-1,-1,-1,-1,-1,-1,-1],"split_conditions":[3E0,2E0,3E0,2.4E1,8.1E1,4.5E1,3E0,-2.4390247E-2,2E0,3.5E1,3E0,3.5E1,3.5E1,5.5E1,6.6E1,1E0,2.2340424E-1,2E0,4E0,2.2847681E-1,9.9E1,4E0,1.7E1,-1.0227273E-1,-2.4390247E-2,4E0,1.4159292E-1,3.1E1,2.4390241E-2,-4.0485864E-3,1.4220183E-1,9.9112414E-2,3.0515602E-2,3.0534346E-2,-5.802048E-2,9.734513E-2,-2.4390247E-2,-6.1469268E-2,5.1359512E-2,2.2388056E-2,1.3672923E-1,2.1148032E-2,-8.591674E-2,-7.4679635E-2,-1.2165505E-1],"split_indices":[0,6,1,4,2,4,3,0,1,4,6,4,2,2,4,6,0,0,6,0,2,6,2,0,0,0,0,4,0,0,0,0,0,0,0,0,0,0,0,0,0,0,0,0,0],"split_type":[0,0,0,0,0,0,0,0,0,0,0,0,0,0,0,0,0,0,0,0,0,0,0,0,0,0,0,0,0,0,0,0,0,0,0,0,0,0,0,0,0,0,0,0,0],"sum_hessian":[2.1000002E2,1.1403001E2,9.597E1,1.4280001E1,9.975001E1,1.5960001E1,8.001E1,1.0500001E0,1.32300005E1,9.24E1,7.3500004E0,1.239E1,3.5700002E0,1.3860001E1,6.615E1,4.8300004E0,8.400001E0,5.3550003E1,3.8850002E1,5.04E0,2.3100002E0,7.9800005E0,4.4100003E0,2.52E0,1.0500001E0,1.26E1,1.26E0,6.5100006E1,1.0500001E0,1.47E0,3.3600001E0,2.604E1,2.751E1,2.52E1,1.3650001E1,1.26E0,1.0500001E0,5.67E0,2.3100002E0,1.6800001E0,2.73E0,2.3100002E0,1.029E1,2.1630001E1,4.347E1],"tree_param":{"num_deleted":"0","num_feature":"7","num_nodes":"45","size_leaf_vector":"1"}},{"base_weights":[1.2171676E-3,5.942606E-1,-7.42674E-1,1.4988642E0,4.4608906E-1,-4.2517588E-2,-8.850934E-1,-2.3264268E-2,1.6335288E0,3.3293974E-1,1.6121967E0,2.3071192E-1,-8.5825276E-1,-3.5406122E-1,-9.917614E-1,9.3444526E-1,1.8880433E0,8.48644E-1,1.5108709E-1,1.950172E-1,4.7817802E-1,-1.7786656E-1,1.08850256E-1,-9.860489E-2,-2.1847501E-2,-6.1708593E-1,1.2959944E-1,-1.0158838E0,2.3020823E-2,1.5897404E-1,2.891678E-2,1.9873627E-1,5.8783364E-2,1.3006955E-2,1.0243596E-1,4.8630055E-2,-2.0475669E-2,-2.66868E-2,9.4524436E-2,-4.4043656E-2,4.7075596E-2,1.9551316E-2,-8.082048E-2,-4.0163537E-3,-1.0510408E-1],"categories":[],"categories_nodes":[],"categories_segments":[],"categories_sizes":[],"default_left":[0,0,0,0,0,0,0,0,0,0,0,0,0,0,0,0,0,0,0,0,0,0,0,0,0,0,0,0,0,0,0,0,0,0,0,0,0,0,0,0,0,0,0,0,0],"id":1,"left_children":[1,3,5,7,9,11,13,-1,15,17,19,21,23,25,27,29,31,33,35,-1,37,39,-1,-1,-1,41,-1,43,-1,-1,-1,-1,-1,-1,-1,-1,-1,-1,-1,-1,-1,-1,-1,-1,-1],"loss_changes":[9.3283936E1,1.5101276E1,9.31546E0,4.1423454E0,1.2989967E1,3.9658234E0,4.060997E0,0E0,9.216461E-1,8.753993E0,2.443098E0,4.908009E0,1.4869022E-1,7.129393E0,2.129467E0,2.0811558E0,1.343193E-1,2.9570332E0,8.596929E0,0E0,1.4169883E0,1.9054978E0,0E0,0E0,0E0,2.2167974E0,0E0,2.1274185E0,0E0,0E0,0E0,0E0,0E0,0E0,0E0,0E0,0E0,0E0,0E0,0E0,0E0,0E0,0E0,0E0,0E0],"parents":[2147483647,0,0,1,1,2,2,3,3,4,4,5,5,6,6,8,8,9,9,10,10,11,11,12,12,13,13,14,14,15,15,16,16,17,17,18,18,20,20,21,21,25,25,27,27],"right_children":[2,4,6,8,10,12,14,-1,16,18,20,22,24,26,28,30,32,34,36,-1,38,40,-1,-1,-1,42,-1,44,-1,-1,-1,-1,-1,-1,-1,-1,-1,-1,-1,-1,-1,-1,-1,-1,-1],"split_conditions":[3E0,2E0,3E0,2.4E1,8.1E1,4.5E1,3E0,-2.3264268E-2,2E0,2.6E1,3E0,3.7E1,5.3E1,5.5E1,6.6E1,1.9E1,8.4E1,1.2E1,2E0,1.950172E-1,4E0,4E0,1.08850256E-1,-9.860489E-2,-2.1847501E-2,4E0,1.2959944E-1,2.3E1,2.3020823E-2,1.5897404E-1,2.891678E-2,1.9873627E-1,5.8783364E-2,1.3006955E-2,1.0243596E-1,4.8630055E-2,-2.0475669E-2,-2.66868E-2,9.4524436E-2,-4.4043656E-2,4.7075596E-2,1.9551316E-2,-8.082048E-2,-4.0163537E-3,-1.0510408E-1],"split_indices":[0,6,1,4,2,4,3,0,1,4,6,4,4,2,4,2,2,2,0,0,6,6,0,0,0,0,0,4,0,0,0,0,0,0,0,0,0,0,0,0,0,0,0,0,0],"split_type":[0,0,0,0,0,0,0,0,0,0,0,0,0,0,0,0,0,0,0,0,0,0,0,0,0,0,0,0,0,0,0,0,0,0,0,0,0,0,0,0,0,0,0,0,0],"sum_hessian":[2.094512E2,1.16653824E2,9.279738E1,1.5135311E1,1.0151851E2,1.59049015E1,7.689247E1,1.0396764E0,1.4095634E1,9.371108E1,7.8074265E0,1.2451469E1,3.4534318E0,1.3584274E1,6.33082E1,5.0089264E0,9.086708E0,2.3474525E1,7.0236565E1,5.4603577E0,2.3470685E0,8.971064E0,3.4804063E0,2.4273334E0,1.0260984E0,1.22565565E1,1.3277173E0,6.224804E1,1.0601611E0,1.7589827E0,3.2499437E0,7.95087E0,1.1358385E0,4.954349E0,1.8520176E1,3.5977898E1,3.4258663E1,1.0695666E0,1.277502E0,6.614431E0,2.3566325E0,2.329404E0,9.927153E0,2.2394185E0,6.000862E1],"tree_param":{"num_deleted":"0","num_feature":"7","num_nodes":"45","size_leaf_vector":"1"}},{"base_weights":[3.4047852E-3,5.319407E-1,-6.943846E-1,1.3268985E0,3.9919207E-1,-3.9889216E-2,-8.3250713E-1,-2.2192808E-2,1.4429604E0,2.9719728E-1,1.426811E0,2.1438566E-1,-8.221446E-1,-5.046527E-1,-1.0075397E0,8.5354036E-1,1.6493157E-1,5.227485E-1,-2.9167363E-2,1.7074305E-1,4.4545782E-1,-2.3199195E-1,8.700154E-1,-9.472525E-2,-2.084424E-2,-6.2042767E-1,6.2446512E-2,-2.9430038E-1,-1.100202E0,-6.6137696E-3,1.1642595E-1,7.825053E-2,2.4881281E-2,2.5813079E-2,-5.5625316E-2,-2.5448773E-2,8.741535E-2,-5.4718163E-2,4.3211203E-2,1.6043393E-2,1.14259996E-1,2.1224555E-2,-7.387336E-2,5.6548543E-2,-5.8220245E-2,-1.18712954E-1,-6.6480935E-2],"categories":[],"categories_nodes":[],"categories_segments":[],"categories_sizes":[],"default_left":[0,0,0,0,0,0,0,0,0,0,0,0,0,0,0,0,0,0,0,0,0,0,0,0,0,0,0,0,0,0,0,0,0,0,0,0,0,0,0,0,0,0,0,0,0,0,0],"id":2,"left_children":[1,3,5,7,9,11,13,-1,15,17,19,21,23,25,27,29,-1,31,33,-1,35,37,39,-1,-1,41,-1,43,45,-1,-1,-1,-1,-1,-1,-1,-1,-1,-1,-1,-1,-1,-1,-1,-1,-1,-1],"loss_changes":[7.751819E1,1.2091038E1,8.15625E0,3.3191357E0,1.0467091E1,3.5252233E0,3.781311E0,0E0,4.961319E-1,7.0666914E0,1.7507305E0,4.1526246E0,1.3555193E-1,4.0505757E0,2.8308296E0,1.8291945E0,0E0,3.8397198E0,6.215123E0,0E0,1.2369142E0,2.0828407E0,9.1506195E-1,0E0,0E0,2.7099419E0,0E0,2.025672E0,7.957878E-1,0E0,0E0,0E0,0E0,0E0,0E0,0E0,0E0,0E0,0E0,0E0,0E0,0E0,0E0,0E0,0E0,0E0,0E0],"parents":[2147483647,0,0,1,1,2,2,3,3,4,4,5,5,6,6,8,8,9,9,10,10,11,11,12,12,13,13,14,14,15,15,17,17,18,18,20,20,21,21,22,22,25,25,27,27,28,28],"right_children":[2,4,6,8,10,12,14,-1,16,18,20,22,24,26,28,30,-1,32,34,-1,36,38,40,-1,-1,42,-1,44,46,-1,-1,-1,-1,-1,-1,-1,-1,-1,-1,-1,-1,-1,-1,-1,-1,-1,-1],"split_conditions":[3E0,2E0,3E0,2.4E1,8.1E1,4.5E1,3.1E1,-2.2192808E-2,2E0,3.5E1,3E0,3.5E1,5.3E1,5.9E1,4E0,1E0,1.6493157E-1,2E0,4E0,1.7074305E-1,4E0,4E0,1.7E1,-9.472525E-2,-2.084424E-2,2.3E1,6.2446512E-2,3.5E1,4.6E1,-6.6137696E-3,1.1642595E-1,7.825053E-2,2.4881281E-2,2.5813079E-2,-5.5625316E-2,-2.5448773E-2,8.741535E-2,-5.4718163E-2,4.3211203E-2,1.6043393E-2,1.14259996E-1,2.1224555E-2,-7.387336E-2,5.6548543E-2,-5.8220245E-2,-1.18712954E-1,-6.6480935E-2],"split_indices":[0,6,1,4,2,4,4,0,1,4,6,4,4,2,0,6,0,0,6,0,6,6,2,0,0,4,0,4,2,0,0,0,0,0,0,0,0,0,0,0,0,0,0,0,0,0,0],"split_type":[0,0,0,0,0,0,0,0,0,0,0,0,0,0,0,0,0,0,0,0,0,0,0,0,0,0,0,0,0,0,0,0,0,0,0,0,0,0,0,0,0,0,0,0,0,0,0],"sum_hessian":[2.0818494E2,1.1859421E2,8.959072E1,1.5682838E1,1.0291137E2,1.5836774E1,7.3753944E1,1.0296867E0,1.4653152E1,9.479213E1,8.119243E0,1.2499656E1,3.3371181E0,2.702203E1,4.6731915E1,5.1316633E0,9.521489E0,5.569765E1,3.909448E1,5.73845E0,2.380793E0,7.820986E0,4.67867E0,2.320551E0,1.0165672E0,2.4917604E1,2.1044257E0,5.853379E0,4.0878536E1,1.49471E0,3.6369534E0,2.7635769E1,2.8061882E1,2.5632994E1,1.3461484E1,1.0586567E0,1.3221363E0,5.4231644E0,2.3978214E0,1.7393715E0,2.9392984E0,3.0010774E0,2.1916527E1,1.2264805E0,4.6268983E0,3.2636066E1,8.242469E0],"tree_param":{"num_deleted":"0","num_feature":"7","num_nodes":"47","size_leaf_vector":"1"}},{"base_weights":[3.6749805E-3,4.768369E-1,-6.508018E-1,1.1800385E0,3.5795575E-1,9.7560644E-2,-7.606603E-1,-2.1172898E-2,1.2816825E0,1.8159096E-1,8.368596E-1,3.999282E-1,-7.067307E-1,-5.199032E-1,-1.0304245E0,1.381018E-1,5.415786E-1,3.564021E-1,-3.4990332E-1,-3.2295452E-3,9.49101E-1,4.635659E-2,1.04604185E-1,-8.24408E-2,-1.9888883E-2,-6.9766265E-1,2.4342878E-1,-1.373669E-3,-1.0736903E0,-4.0267568E-2,1.17225125E-1,6.612176E-2,1.8314554E-4,4.6026405E-2,-5.175302E-2,6.2006693E-2,-4.1434314E-2,1.0867422E-1,1.8652555E-2,-3.1269245E-2,3.893867E-2,-1.0429322E-2,-8.2647674E-2,8.5459016E-2,-1.0927665E-2,-3.835575E-2,-1.1427156E-1],"categories":[],"categories_nodes":[],"categories_segments":[],"categories_sizes":[],"default_left":[0,0,0,0,0,0,0,0,0,0,0,0,0,0,0,0,0,0,0,0,0,0,0,0,0,0,0,0,0,0,0,0,0,0,0,0,0,0,0,0,0,0,0,0,0,0,0],"id":3,"left_children":[1,3,5,7,9,11,13,-1,15,17,19,21,23,25,27,-1,29,31,33,35,37,39,-1,-1,-1,41,43,-1,45,-1,-1,-1,-1,-1,-1,-1,-1,-1,-1,-1,-1,-1,-1,-1,-1,-1,-1],"loss_changes":[6.459072E1,9.697285E0,7.2697487E0,2.6861706E0,8.715058E0,3.2227762E0,4.428379E0,0E0,4.3203545E-1,7.3721304E0,2.6412697E0,2.1046634E0,5.50375E-2,5.92387E0,1.5259857E0,0E0,2.5828066E0,6.3963103E0,2.9285975E0,1.3572874E0,2.388239E0,1.0009092E0,0E0,0E0,0E0,2.5626087E0,1.9798037E0,0E0,1.1615181E0,0E0,0E0,0E0,0E0,0E0,0E0,0E0,0E0,0E0,0E0,0E0,0E0,0E0,0E0,0E0,0E0,0E0,0E0],"parents":[2147483647,0,0,1,1,2,2,3,3,4,4,5,5,6,6,8,8,9,9,10,10,11,11,12,12,13,13,14,14,16,16,17,17,18,18,19,19,20,20,21,21,25,25,26,26,28,28],"right_children":[2,4,6,8,10,12,14,-1,16,18,20,22,24,26,28,-1,30,32,34,36,38,40,-1,-1,-1,42,44,-1,46,-1,-1,-1,-1,-1,-1,-1,-1,-1,-1,-1,-1,-1,-1,-1,-1,-1,-1],"split_conditions":[3E0,2E0,2E0,2.4E1,4.1E1,4.5E1,4E0,-2.1172898E-2,7.8E1,4E0,2E0,3.7E1,5.3E1,4.2E1,2.3E1,1.381018E-1,3E0,2E0,2E0,2.9E1,2E0,2.4E1,1.04604185E-1,-8.24408E-2,-1.9888883E-2,4E0,4.7E1,-1.373669E-3,4E0,-4.0267568E-2,1.17225125E-1,6.612176E-2,1.8314554E-4,4.6026405E-2,-5.175302E-2,6.2006693E-2,-4.1434314E-2,1.0867422E-1,1.8652555E-2,-3.1269245E-2,3.893867E-2,-1.0429322E-2,-8.2647674E-2,8.5459016E-2,-1.0927665E-2,-3.835575E-2,-1.1427156E-1],"split_indices":[0,6,1,4,2,4,3,0,2,6,3,4,4,2,4,0,3,0,1,4,5,2,0,0,0,0,2,0,0,0,0,0,0,0,0,0,0,0,0,0,0,0,0,0,0,0,0],"split_type":[0,0,0,0,0,0,0,0,0,0,0,0,0,0,0,0,0,0,0,0,0,0,0,0,0,0,0,0,0,0,0,0,0,0,0,0,0,0,0,0,0,0,0,0,0,0,0],"sum_hessian":[2.0657474E2,1.2005264E2,8.6522095E1,1.6069962E1,1.0398268E2,1.1089786E1,7.543231E1,1.0200344E0,1.5049927E1,7.700384E1,2.6978844E1,8.425163E0,2.6646225E0,4.1405926E1,3.4026382E1,1.2505486E1,2.5444412E0,5.8193226E1,1.8810612E1,3.2941875E0,2.3684656E1,6.138015E0,2.2871482E0,1.6572487E0,1.0073738E0,3.3654686E1,7.75124E0,1.4426872E0,3.2583694E1,1.1636772E0,1.380764E0,3.0827103E1,2.7366123E1,2.92549E0,1.5885121E1,1.1072319E0,2.1869555E0,1.9703226E1,3.9814315E0,3.042195E0,3.0958197E0,6.325682E0,2.7329004E1,2.315693E0,5.435547E0,3.5587869E0,2.9024908E1],"tree_param":{"num_deleted":"0","num_feature":"7","num_nodes":"47","size_leaf_vector":"1"}},{"base_weights":[3.3060575E-3,4.274624E-1,-6.0969317E-1,1.0557197E0,3.206158E-1,-2.920991E-2,-7.4068856E-1,-2.0201767E-2,1.1459641E0,2.3319384E-1,1.1908203E0,1.9724645E-1,-7.624668E-1,-2.274719E-1,-8.507074E-1,6.512222E-1,1.3310825E0,6.3970757E-1,8.5480295E-2,1.4406386E-1,3.4796748E-1,-2.0366473E-1,7.608246E-1,-2.2285143E-2,-8.864214E-2,-4.8399526E-1,1.17041886E-1,-8.7648267E-1,2.74109E-2,1.2372833E-1,1.1807255E-2,1.3967583E-1,4.379512E-2,7.193088E-2,-4.58471E-2,3.5510443E-2,-2.1018451E-2,7.7310465E-2,-3.0064112E-2,-4.9674083E-2,3.8503323E-2,1.1701579E-2,1.0143318E-1,2.2519564E-2,-6.7171305E-2,-5.491848E-2,-1.0301676E-1],"categories":[],"categories_nodes":[],"categories_segments":[],"categories_sizes":[],"default_left":[0,0,0,0,0,0,0,0,0,0,0,0,0,0,0,0,0,0,0,0,0,0,0,0,0,0,0,0,0,0,0,0,0,0,0,0,0,0,0,0,0,0,0,0,0,0,0],"id":4,"left_children":[1,3,5,7,9,11,13,-1,15,17,19,21,23,25,27,29,31,33,35,-1,37,39,41,-1,-1,43,-1,45,-1,-1,-1,-1,-1,-1,-1,-1,-1,-1,-1,-1,-1,-1,-1,-1,-1,-1,-1],"loss_changes":[5.3790718E1,7.8691826E0,6.4120617E0,2.199171E0,7.7812853E0,2.9099832E0,3.701889E0,0E0,6.2830734E-1,5.8003983E0,1.4837141E0,3.2033956E0,7.8504086E-2,5.423113E0,1.8767624E0,1.854578E0,2.8942108E-2,2.5880594E0,5.8680725E0,0E0,1.1903262E0,1.6875703E0,8.3109236E-1,0E0,0E0,1.7689152E0,0E0,2.2219086E0,0E0,0E0,0E0,0E0,0E0,0E0,0E0,0E0,0E0,0E0,0E0,0E0,0E0,0E0,0E0,0E0,0E0,0E0,0E0],"parents":[2147483647,0,0,1,1,2,2,3,3,4,4,5,5,6,6,8,8,9,9,10,10,11,11,12,12,13,13,14,14,15,15,16,16,17,17,18,18,20,20,21,21,22,22,25,25,27,27],"right_children":[2,4,6,8,10,12,14,-1,16,18,20,22,24,26,28,30,32,34,36,-1,38,40,42,-1,-1,44,-1,46,-1,-1,-1,-1,-1,-1,-1,-1,-1,-1,-1,-1,-1,-1,-1,-1,-1,-1,-1],"split_conditions":[3E0,2E0,3E0,2.4E1,8.1E1,4.5E1,3E0,-2.0201767E-2,2E0,2.6E1,3E0,3.5E1,5E0,5.5E1,6.6E1,1.9E1,8.4E1,5E0,2E0,1.4406386E-1,9.9E1,4E0,1.7E1,-2.2285143E-2,-8.864214E-2,4E0,1.17041886E-1,3.1E1,2.74109E-2,1.2372833E-1,1.1807255E-2,1.3967583E-1,4.379512E-2,7.193088E-2,-4.58471E-2,3.5510443E-2,-2.1018451E-2,7.7310465E-2,-3.0064112E-2,-4.9674083E-2,3.8503323E-2,1.1701579E-2,1.0143318E-1,2.2519564E-2,-6.7171305E-2,-5.491848E-2,-1.0301676E-1],"split_indices":[0,6,1,4,2,4,3,0,1,4,6,4,3,2,4,2,2,3,0,0,2,6,2,0,0,0,0,4,0,0,0,0,0,0,0,0,0,0,0,0,0,0,0,0,0,0,0],"split_type":[0,0,0,0,0,0,0,0,0,0,0,0,0,0,0,0,0,0,0,0,0,0,0,0,0,0,0,0,0,0,0,0,0,0,0,0,0,0,0,0,0,0,0,0,0,0,0],"sum_hessian":[2.0487906E2,1.2127038E2,8.360869E1,1.6335718E1,1.04934654E2,1.56189575E1,6.798973E1,1.0107208E0,1.5324998E1,9.650737E1,8.42729E0,1.249198E1,3.1269774E0,1.2543641E1,5.5446087E1,5.4029903E0,9.922008E0,2.4833588E1,7.167378E1,5.9534655E0,2.473825E0,7.672579E0,4.819401E0,1.106755E0,2.0202227E0,1.1151099E1,1.3925422E0,5.441983E1,1.0262574E0,1.9446465E0,3.458344E0,8.717113E0,1.204895E0,2.3476871E1,1.356716E0,3.7382607E1,3.4291172E1,1.3783971E0,1.095428E0,5.2267227E0,2.4458559E0,1.7744868E0,3.044914E0,2.292075E0,8.859024E0,1.8849693E1,3.5570137E1],"tree_param":{"num_deleted":"0","num_feature":"7","num_nodes":"47","size_leaf_vector":"1"}},{"base_weights":[4.3809093E-3,3.8642824E-1,-5.711164E-1,2.3409963E-1,7.6334417E-1,9.8359175E-2,-6.763304E-1,3.8921815E-1,-3.3395737E-1,2.659258E-2,8.646938E-1,3.6437646E-1,-6.49191E-2,-4.440128E-1,-9.4856185E-1,5.042642E-1,-4.9706596E-1,9.328225E-2,-6.5003586E-1,6.597255E-2,-4.0772173E-1,6.0835975E-1,1.2772015E0,5.4947034E-2,9.064289E-2,-6.158456E-1,2.4787092E-1,1.9388314E-3,-9.9423903E-1,7.845108E-2,1.632352E-2,-9.485925E-2,2.0925594E-2,-3.538251E-2,1.3023849E-1,4.0190976E-2,-8.417744E-2,5.1148287E-3,-7.969987E-2,1.06145516E-1,-5.4161996E-3,6.789727E-2,1.6002859E-1,-2.7864495E-2,3.6242124E-2,-7.317447E-3,-7.413483E-2,8.138576E-2,-9.11501E-3,-3.0753398E-2,-1.06800295E-1],"categories":[],"categories_nodes":[],"categories_segments":[],"categories_sizes":[],"default_left":[0,0,0,0,0,0,0,0,0,0,0,0,0,0,0,0,0,0,0,0,0,0,0,0,0,0,0,0,0,0,0,0,0,0,0,0,0,0,0,0,0,0,0,0,0,0,0,0,0,0,0],"id":5,"left_children":[1,3,5,7,9,11,13,15,17,19,21,23,-1,25,27,29,31,33,35,-1,37,39,41,43,-1,45,47,-1,49,-1,-1,-1,-1,-1,-1,-1,-1,-1,-1,-1,-1,-1,-1,-1,-1,-1,-1,-1,-1,-1,-1],"loss_changes":[4.499966E1,6.883419E0,5.8186893E0,7.975924E0,2.5874634E0,2.6157246E0,4.050102E0,7.429265E0,2.7124631E0,1.7152027E0,2.4692955E0,1.5376409E0,0E0,4.9112444E0,1.4196377E0,5.8749495E0,2.938848E0,5.4476995E0,2.640184E0,0E0,7.0839053E-1,6.314636E0,1.0117855E0,8.2817376E-1,0E0,2.1489859E0,1.7389407E0,0E0,1.2045841E0,0E0,0E0,0E0,0E0,0E0,0E0,0E0,0E0,0E0,0E0,0E0,0E0,0E0,0E0,0E0,0E0,0E0,0E0,0E0,0E0,0E0,0E0],"parents":[2147483647,0,0,1,1,2,2,3,3,4,4,5,5,6,6,7,7,8,8,9,9,10,10,11,11,13,13,14,14,15,15,16,16,17,17,18,18,20,20,21,21,22,22,23,23,25,25,26,26,28,28],"right_children":[2,4,6,8,10,12,14,16,18,20,22,24,-1,26,28,30,32,34,36,-1,38,40,42,44,-1,46,48,-1,50,-1,-1,-1,-1,-1,-1,-1,-1,-1,-1,-1,-1,-1,-1,-1,-1,-1,-1,-1,-1,-1,-1],"split_conditions":[3E0,4.1E1,2E0,4E0,2E0,4.5E1,4E0,3.5E1,3.6E1,6.6E1,3.9E1,3.7E1,-6.49191E-2,4.2E1,2.3E1,2E0,3.2E1,5E0,2E0,6.597255E-2,3.9E1,3E1,5E0,2.4E1,9.064289E-2,4E0,4.7E1,1.9388314E-3,4E0,7.845108E-2,1.632352E-2,-9.485925E-2,2.0925594E-2,-3.538251E-2,1.3023849E-1,4.0190976E-2,-8.417744E-2,5.1148287E-3,-7.969987E-2,1.06145516E-1,-5.4161996E-3,6.789727E-2,1.6002859E-1,-2.7864495E-2,3.6242124E-2,-7.317447E-3,-7.413483E-2,8.138576E-2,-9.11501E-3,-3.0753398E-2,-1.06800295E-1],"split_indices":[0,2,1,6,3,4,3,2,4,2,4,4,0,2,4,0,4,3,1,0,4,4,3,2,0,0,2,0,0,0,0,0,0,0,0,0,0,0,0,0,0,0,0,0,0,0,0,0,0,0,0],"split_type":[0,0,0,0,0,0,0,0,0,0,0,0,0,0,0,0,0,0,0,0,0,0,0,0,0,0,0,0,0,0,0,0,0,0,0,0,0,0,0,0,0,0,0,0,0,0,0,0,0,0,0],"sum_hessian":[2.026637E2,1.2200108E2,8.066261E1,8.80409E1,3.396018E1,1.0963993E1,6.969862E1,6.940375E1,1.8637156E1,4.259383E0,2.9700796E1,8.464467E0,2.499526E0,3.902574E1,3.0672882E1,6.1811237E1,7.592509E0,8.224743E0,1.0412413E1,1.521855E0,2.7375283E0,1.9844267E1,9.856529E0,6.089601E0,2.3748662E0,3.1349768E1,7.675973E0,1.4081509E0,2.926473E1,3.3215443E1,2.8595795E1,4.4224133E0,3.1700952E0,6.520813E0,1.7039298E0,1.4362888E0,8.976124E0,1.6551204E0,1.082408E0,1.1427151E1,8.417116E0,4.544109E0,5.31242E0,2.9657223E0,3.1238787E0,6.185751E0,2.5164017E1,2.3507862E0,5.3251867E0,3.3400156E0,2.5924715E1],"tree_param":{"num_deleted":"0","num_feature":"7","num_nodes":"51","size_leaf_vector":"1"}},{"base_weights":[4.3124147E-3,3.4831676E-1,-5.3472006E-1,9.124462E-1,2.5323156E-1,9.116511E-2,-6.36568E-1,-2.10305E-2,9.947171E-1,1.7761691E-1,1.0118601E0,3.363725E-1,-6.1887246E-1,-4.1112155E-1,-9.0861756E-1,1.3482627E-1,7.2336E-1,3.510986E-1,-7.968093E-2,1.2395008E-1,2.7463406E-1,5.040107E-2,8.320106E-2,-7.2517864E-2,-2.0252453E-2,-5.7685417E-1,2.2934213E-1,1.8244967E-3,-9.5493835E-1,6.2076915E-3,1.0694712E-1,3.8749285E-2,-8.0921836E-2,1.2602781E-2,-4.8615314E-2,-3.391934E-2,7.001284E-2,-1.798953E-2,4.5058403E-2,3.3176627E-2,-6.378007E-2,7.3736064E-2,-8.376208E-3,-2.8776085E-2,-1.03014186E-1],"categories":[],"categories_nodes":[],"categories_segments":[],"categories_sizes":[],"default_left":[0,0,0,0,0,0,0,0,0,0,0,0,0,0,0,0,0,0,0,0,0,0,0,0,0,0,0,0,0,0,0,0,0,0,0,0,0,0,0,0,0,0,0,0,0],"id":6,"left_children":[1,3,5,7,9,11,13,-1,15,17,19,21,23,25,27,-1,29,31,33,-1,35,37,-1,-1,-1,39,41,-1,43,-1,-1,-1,-1,-1,-1,-1,-1,-1,-1,-1,-1,-1,-1,-1,-1],"loss_changes":[3.758183E1,6.404845E0,5.091284E0,1.8219662E0,5.972567E0,2.28443E0,3.799137E0,0E0,6.021595E-1,4.4355106E0,1.2552795E0,1.3062716E0,4.2067766E-3,4.275143E0,1.305584E0,0E0,2.5565557E0,2.811934E0,3.45439E0,0E0,1.1588949E0,7.350522E-1,0E0,0E0,0E0,1.9443979E0,1.4518151E0,0E0,1.1382694E0,0E0,0E0,0E0,0E0,0E0,0E0,0E0,0E0,0E0,0E0,0E0,0E0,0E0,0E0,0E0,0E0],"parents":[2147483647,0,0,1,1,2,2,3,3,4,4,5,5,6,6,8,8,9,9,10,10,11,11,12,12,13,13,14,14,16,16,17,17,18,18,20,20,21,21,25,25,26,26,28,28],"right_children":[2,4,6,8,10,12,14,-1,16,18,20,22,24,26,28,-1,30,32,34,-1,36,38,-1,-1,-1,40,42,-1,44,-1,-1,-1,-1,-1,-1,-1,-1,-1,-1,-1,-1,-1,-1,-1,-1],"split_conditions":[3E0,2E0,2E0,2.4E1,8.1E1,4.5E1,4E0,-2.10305E-2,1.9E1,3.5E1,3E0,3.7E1,2.3E1,4.2E1,2.3E1,1.3482627E-1,3E0,7.5E1,4E0,1.2395008E-1,4E0,3E1,8.320106E-2,-7.2517864E-2,-2.0252453E-2,2.3E1,4.7E1,1.8244967E-3,4E0,6.2076915E-3,1.0694712E-1,3.8749285E-2,-8.0921836E-2,1.2602781E-2,-4.8615314E-2,-3.391934E-2,7.001284E-2,-1.798953E-2,4.5058403E-2,3.3176627E-2,-6.378007E-2,7.3736064E-2,-8.376208E-3,-2.8776085E-2,-1.03014186E-1],"split_indices":[0,6,1,4,2,4,3,0,2,4,6,4,2,2,4,0,1,2,6,0,6,2,0,0,0,4,2,0,0,0,0,0,0,0,0,0,0,0,0,0,0,0,0,0,0],"split_type":[0,0,0,0,0,0,0,0,0,0,0,0,0,0,0,0,0,0,0,0,0,0,0,0,0,0,0,0,0,0,0,0,0,0,0,0,0,0,0,0,0,0,0,0,0],"sum_hessian":[2.0067004E2,1.2271106E2,7.7958984E1,1.6459957E1,1.0625111E2,1.0925223E1,6.703376E1,1.0175259E0,1.5442431E1,9.774292E1,8.508183E0,8.511936E0,2.4132872E0,3.8029804E1,2.9003954E1,4.982388E0,1.0460043E1,5.8162567E1,3.9580353E1,5.9802866E0,2.5278957E0,6.096239E0,2.4156969E0,1.331543E0,1.0817443E0,3.0290787E1,7.739019E0,1.4093567E0,2.7594597E1,3.9989567E0,6.4610868E0,5.7039524E1,1.1230438E0,2.6738432E1,1.2841923E1,1.1179465E0,1.4099492E0,4.2188516E0,1.8773878E0,1.6247448E0,2.8666042E1,2.4343047E0,5.304714E0,3.2842603E0,2.4310337E1],"tree_param":{"num_deleted":"0","num_feature":"7","num_nodes":"45","size_leaf_vector":"1"}},{"base_weights":[4.390482E-3,3.1502444E-1,-4.9999318E-1,8.362838E-1,2.277262E-1,-1.3034394E-2,-6.208874E-1,-2.0066522E-2,9.12227E-1,1.5822093E-1,9.310861E-1,1.7973621E-1,-6.818724E-1,-4.128284E-1,-9.341445E-1,1.23985186E-1,6.617998E-1,4.8048335E-1,3.874608E-2,1.140836E-1,2.564839E-1,-1.2484606E-1,7.52772E-1,-1.5844686E-2,-8.168431E-2,-1.1611618E-1,-5.999576E-1,-1.0004779E0,9.7982045E-3,5.7049305E-3,9.795385E-2,5.509412E-2,-4.766301E-2,2.706494E-2,-2.1891972E-2,-3.2319237E-2,6.532226E-2,-2.8755529E-2,5.3718816E-2,1.0111649E-1,2.404805E-2,-2.6658643E-2,5.5612285E-2,-6.5673776E-2,3.2138627E-2,-1.2338004E-2,-1.11210905E-1],"categories":[],"categories_nodes":[],"categories_segments":[],"categories_sizes":[],"default_left":[0,0,0,0,0,0,0,0,0,0,0,0,0,0,0,0,0,0,0,0,0,0,0,0,0,0,0,0,0,0,0,0,0,0,0,0,0,0,0,0,0,0,0,0,0,0,0],"id":7,"left_children":[1,3,5,7,9,11,13,-1,15,17,19,21,23,25,27,-1,29,31,33,-1,35,37,39,-1,-1,41,43,45,-1,-1,-1,-1,-1,-1,-1,-1,-1,-1,-1,-1,-1,-1,-1,-1,-1,-1,-1],"loss_changes":[3.1403173E1,5.4535513E0,4.489315E0,1.5547085E0,5.11354E0,2.2132497E0,3.6017952E0,0E0,5.258255E-1,3.7984605E0,1.0478077E0,2.4290855E0,1.416142E-1,2.0710135E0,1.7155037E0,0E0,2.1434011E0,2.0648928E0,4.4459405E0,0E0,1.0245174E0,1.1878651E0,3.9030004E-1,0E0,0E0,1.7819815E0,1.4353857E0,2.045E0,0E0,0E0,0E0,0E0,0E0,0E0,0E0,0E0,0E0,0E0,0E0,0E0,0E0,0E0,0E0,0E0,0E0,0E0,0E0],"parents":[2147483647,0,0,1,1,2,2,3,3,4,4,5,5,6,6,8,8,9,9,10,10,11,11,12,12,13,13,14,14,16,16,17,17,18,18,20,20,21,21,22,22,25,25,26,26,27,27],"right_children":[2,4,6,8,10,12,14,-1,16,18,20,22,24,26,28,-1,30,32,34,-1,36,38,40,-1,-1,42,44,46,-1,-1,-1,-1,-1,-1,-1,-1,-1,-1,-1,-1,-1,-1,-1,-1,-1,-1,-1],"split_conditions":[3E0,2E0,3E0,2.4E1,8.1E1,4.5E1,4E0,-2.0066522E-2,1.9E1,2.6E1,3E0,3.7E1,5E0,2.9E1,6.9E1,1.23985186E-1,3E0,5E0,2E0,1.140836E-1,4E0,7.3E1,4E1,-1.5844686E-2,-8.168431E-2,3E0,6.3E1,4E0,9.7982045E-3,5.7049305E-3,9.795385E-2,5.509412E-2,-4.766301E-2,2.706494E-2,-2.1891972E-2,-3.2319237E-2,6.532226E-2,-2.8755529E-2,5.3718816E-2,1.0111649E-1,2.404805E-2,-2.6658643E-2,5.5612285E-2,-6.5673776E-2,3.2138627E-2,-1.2338004E-2,-1.11210905E-1],"split_indices":[0,6,1,4,2,4,6,0,2,4,6,4,3,4,2,0,1,3,0,0,6,2,4,0,0,6,4,0,0,0,0,0,0,0,0,0,0,0,0,0,0,0,0,0,0,0,0],"split_type":[0,0,0,0,0,0,0,0,0,0,0,0,0,0,0,0,0,0,0,0,0,0,0,0,0,0,0,0,0,0,0,0,0,0,0,0,0,0,0,0,0,0,0,0,0,0,0],"sum_hessian":[1.984251E2,1.2303014E2,7.539495E1,1.6418049E1,1.066121E2,1.5215427E1,6.0179523E1,1.0082887E0,1.5409761E1,9.813905E1,8.473045E0,1.237889E1,2.8365378E0,3.7554462E1,2.2625061E1,4.964257E0,1.0445504E1,2.5726015E1,7.241303E1,5.9362116E0,2.5368338E0,8.593415E0,3.7854745E0,1.0271429E0,1.809395E0,1.515121E1,2.2403254E1,2.12876E1,1.3374625E0,4.004089E0,6.4414153E0,2.4357327E1,1.3686895E0,3.8085285E1,3.432775E1,1.1060935E0,1.4307401E0,7.352122E0,1.2412935E0,1.8689787E0,1.9164958E0,1.2873182E1,2.2780268E0,2.1373268E1,1.0299857E0,2.641139E0,1.864646E1],"tree_param":{"num_deleted":"0","num_feature":"7","num_nodes":"47","size_leaf_vector":"1"}},{"base_weights":[4.921552E-3,2.862435E-1,-4.6691415E-1,1.562565E-1,6.090449E-1,-2.48482E-1,-7.3316526E-1,2.4527746E-1,-5.1737577E-1,-2.7457615E-2,6.972246E-1,-4.6802995E-1,4.2607406E-1,-8.897894E-1,-8.898633E-2,3.7898958E-1,-2.728368E-1,-9.619611E-2,8.558264E-3,6.0831595E-2,-4.5889193E-1,5.591844E-1,1.4645998E-1,-3.428782E-1,-1.0113255E-1,6.381656E-1,-5.1707145E-2,1.7609099E-3,-9.418694E-1,1.11418925E-1,-4.7168356E-1,7.861108E-2,1.7783595E-2,-5.0192017E-2,1.4941366E-2,-8.566951E-2,3.9887358E-2,-3.0439522E-3,-7.8976534E-2,9.7660296E-2,3.651355E-2,1.0280884E-2,-4.5561098E-2,2.056267E-2,1.0679511E-1,-5.8639046E-2,-1.04411975E-1,-6.995944E-2,3.3754684E-2],"categories":[],"categories_nodes":[],"categories_segments":[],"categories_sizes":[],"default_left":[0,0,0,0,0,0,0,0,0,0,0,0,0,0,0,0,0,0,0,0,0,0,0,0,0,0,0,0,0,0,0,0,0,0,0,0,0,0,0,0,0,0,0,0,0,0,0,0,0],"id":8,"left_children":[1,3,5,7,9,11,13,15,17,19,21,23,25,27,29,31,33,-1,35,-1,37,39,-1,41,-1,43,-1,-1,45,-1,47,-1,-1,-1,-1,-1,-1,-1,-1,-1,-1,-1,-1,-1,-1,-1,-1,-1,-1],"loss_changes":[2.6298683E1,5.112482E0,4.1219807E0,5.5134964E0,1.999546E0,6.444338E0,3.2342453E0,5.6469655E0,2.5350394E0,1.7207198E0,2.4678755E0,1.8487701E0,2.5058916E0,1.2597561E0,3.9946935E0,5.103281E0,1.719033E0,0E0,2.3482993E0,0E0,5.006161E-1,1.904583E0,0E0,1.4414642E0,0E0,1.5145202E0,0E0,0E0,2.9268646E-1,0E0,1.4199548E0,0E0,0E0,0E0,0E0,0E0,0E0,0E0,0E0,0E0,0E0,0E0,0E0,0E0,0E0,0E0,0E0,0E0,0E0],"parents":[2147483647,0,0,1,1,2,2,3,3,4,4,5,5,6,6,7,7,8,8,9,9,10,10,11,11,12,12,13,13,14,14,15,15,16,16,18,18,20,20,21,21,23,23,25,25,28,28,30,30],"right_children":[2,4,6,8,10,12,14,16,18,20,22,24,26,28,30,32,34,-1,36,-1,38,40,-1,42,-1,44,-1,-1,46,-1,48,-1,-1,-1,-1,-1,-1,-1,-1,-1,-1,-1,-1,-1,-1,-1,-1,-1,-1],"split_conditions":[3E0,4.1E1,4E0,3.5E1,2E0,4.2E1,2E0,4E0,3.8E1,6.6E1,5.2E1,4.4E1,2E0,2.3E1,1.3E1,3E0,5E0,-9.619611E-2,2.8E1,6.0831595E-2,3.9E1,2.7E1,1.4645998E-1,4E0,-1.0113255E-1,6.4E1,-5.1707145E-2,1.7609099E-3,3.2E1,1.11418925E-1,4.7E1,7.861108E-2,1.7783595E-2,-5.0192017E-2,1.4941366E-2,-8.566951E-2,3.9887358E-2,-3.0439522E-3,-7.8976534E-2,9.7660296E-2,3.651355E-2,1.0280884E-2,-4.5561098E-2,2.056267E-2,1.0679511E-1,-5.8639046E-2,-1.04411975E-1,-6.995944E-2,3.3754684E-2],"split_indices":[0,2,3,2,3,2,5,6,2,2,4,4,5,4,2,3,3,0,4,0,4,4,0,0,0,2,0,0,4,0,4,0,0,0,0,0,0,0,0,0,0,0,0,0,0,0,0,0,0],"split_type":[0,0,0,0,0,0,0,0,0,0,0,0,0,0,0,0,0,0,0,0,0,0,0,0,0,0,0,0,0,0,0,0,0,0,0,0,0,0,0,0,0,0,0,0,0,0,0,0,0],"sum_hessian":[1.9611826E2,1.2310993E2,7.3008316E1,8.882542E1,3.428452E1,4.1167667E1,3.1840652E1,7.90189E1,9.806514E0,4.25555E0,3.0028969E1,3.12899E1,9.877767E0,2.5306429E1,6.5342236E0,6.302283E1,1.599607E1,4.864975E0,4.941539E0,1.5546255E0,2.7009246E0,2.691587E1,3.1130967E0,2.6757288E1,4.5326123E0,8.328291E0,1.5494748E0,1.4095454E0,2.3896885E1,1.1155607E0,5.418663E0,1.9879686E1,4.3143143E1,1.0247706E1,5.7483635E0,1.1647139E0,3.776825E0,1.6527519E0,1.0481727E0,7.2619433E0,1.9653929E1,5.419483E0,2.1337805E1,4.887709E0,3.440582E0,6.8427024E0,1.7054182E1,4.3336267E0,1.0850364E0],"tree_param":{"num_deleted":"0","num_feature":"7","num_nodes":"49","size_leaf_vector":"1"}},{"base_weights":[3.8872117E-3,2.2862092E-1,-4.9944896E-1,7.310136E-1,1.4942533E-1,1.6406423E-1,-6.192367E-1,3.518688E-1,9.720446E-1,9.134029E-2,8.165944E-1,5.786642E-1,-2.6558295E-1,1.4129691E-1,-6.984085E-1,8.0027245E-2,-1.701757E-3,1.276266E-1,5.120321E-1,-7.637403E-2,1.2825902E-1,1.0205916E-1,1.991741E-1,-2.8457347E-2,8.772896E-1,1.9792727E-1,-8.200146E-2,5.634785E-1,-3.347026E-2,-8.3004516E-1,-2.7250677E-1,-4.2548668E-2,9.015634E-2,-1.08691575E-2,9.8403946E-2,5.0405916E-2,-7.972182E-4,5.8096327E-2,-3.3793136E-2,1.1329935E-1,3.4738313E-2,-3.8842104E-2,6.806617E-2,-1.8809853E-2,1.014024E-1,-1.6340626E-2,-8.609798E-2,1.8008487E-2,-8.2430355E-2],"categories":[],"categories_nodes":[],"categories_segments":[],"categories_sizes":[],"default_left":[0,0,0,0,0,0,0,0,0,0,0,0,0,0,0,0,0,0,0,0,0,0,0,0,0,0,0,0,0,0,0,0,0,0,0,0,0,0,0,0,0,0,0,0,0,0,0,0,0],"id":9,"left_children":[1,3,5,7,9,11,13,15,17,19,21,23,25,27,29,-1,31,-1,33,-1,35,-1,37,-1,39,41,-1,43,-1,45,47,-1,-1,-1,-1,-1,-1,-1,-1,-1,-1,-1,-1,-1,-1,-1,-1,-1,-1],"loss_changes":[2.2206059E1,5.290057E0,4.917963E0,1.3232002E0,4.5168843E0,1.9452598E0,3.2020702E0,1.3726507E0,8.2611275E-1,3.5742366E0,9.7603464E-1,1.650199E0,1.6077363E0,1.332295E0,2.4003677E0,0E0,2.61678E0,0E0,1.8293347E0,0E0,5.452121E0,0E0,9.279424E-1,0E0,1.8656039E-1,1.3595189E0,0E0,1.3382372E0,0E0,5.872555E-1,3.2826638E0,0E0,0E0,0E0,0E0,0E0,0E0,0E0,0E0,0E0,0E0,0E0,0E0,0E0,0E0,0E0,0E0,0E0,0E0],"parents":[2147483647,0,0,1,1,2,2,3,3,4,4,5,5,6,6,7,7,8,8,9,9,10,10,11,11,12,12,13,13,14,14,16,16,18,18,20,20,22,22,24,24,25,25,27,27,29,29,30,30],"right_children":[2,4,6,8,10,12,14,16,18,20,22,24,26,28,30,-1,32,-1,34,-1,36,-1,38,-1,40,42,-1,44,-1,46,48,-1,-1,-1,-1,-1,-1,-1,-1,-1,-1,-1,-1,-1,-1,-1,-1,-1,-1],"split_conditions":[4E0,2E0,2E0,3E0,8.1E1,4E0,2.4E1,1.9E1,3.4E1,7E0,3E0,2.1E1,4.2E1,2.1E1,4.2E1,8.0027245E-2,5E0,1.276266E-1,3.4E1,-7.637403E-2,1.4E1,1.0205916E-1,9.9E1,-2.8457347E-2,5.1E1,3.3E1,-8.200146E-2,1.3E1,-3.347026E-2,3E0,4E0,-4.2548668E-2,9.015634E-2,-1.08691575E-2,9.8403946E-2,5.0405916E-2,-7.972182E-4,5.8096327E-2,-3.3793136E-2,1.1329935E-1,3.4738313E-2,-3.8842104E-2,6.806617E-2,-1.8809853E-2,1.014024E-1,-1.6340626E-2,-8.609798E-2,1.8008487E-2,-8.2430355E-2],"split_indices":[0,6,1,1,2,3,4,2,2,2,6,2,4,2,2,0,3,0,4,0,2,0,2,0,2,4,0,2,0,1,3,0,0,0,0,0,0,0,0,0,0,0,0,0,0,0,0,0,0],"split_type":[0,0,0,0,0,0,0,0,0,0,0,0,0,0,0,0,0,0,0,0,0,0,0,0,0,0,0,0,0,0,0,0,0,0,0,0,0,0,0,0,0,0,0,0,0,0,0,0,0],"sum_hessian":[1.9430177E2,1.3470386E2,5.9597908E1,1.7222036E1,1.1748183E2,9.057594E0,5.0540314E1,7.649354E0,9.572683E0,1.0911865E2,8.3631735E0,4.4330063E0,4.624588E0,4.691219E0,4.5849094E1,2.815408E0,4.833946E0,4.6939816E0,4.878701E0,3.701461E0,1.0541719E2,5.795375E0,2.567799E0,1.1514782E0,3.281528E0,2.8690464E0,1.7555418E0,2.38876E0,2.302459E0,3.42991E1,1.1549996E1,3.6502867E0,1.1836592E0,2.439849E0,2.4388523E0,2.732896E1,7.8088234E1,1.453182E0,1.1146171E0,1.445775E0,1.8357528E0,1.3837105E0,1.485336E0,1.1136072E0,1.2751528E0,1.799622E0,3.2499477E1,6.7154922E0,4.834504E0],"tree_param":{"num_deleted":"0","num_feature":"7","num_nodes":"49","size_leaf_vector":"1"}},{"base_weights":[4.9933586E-3,2.3879965E-1,-4.113109E-1,1.21298015E-1,5.317313E-1,-2.0875731E-1,-6.701438E-1,2.0031138E-1,-4.8648342E-1,3.784323E-1,9.275519E-1,-4.0927947E-1,3.6309728E-1,-8.3219635E-1,-4.0021855E-2,3.1806812E-1,-2.610377E-1,-9.0102226E-2,-6.1236857E-3,7.2717303E-1,6.413395E-2,2.617878E-1,1.4903869E-1,-2.865361E-1,-9.673744E-2,5.542225E-1,-5.0222367E-2,-4.3667373E-1,-9.954244E-1,1.0185733E-1,-4.098636E-1,6.820961E-2,1.3732155E-2,-5.0559755E-2,9.84942E-3,-6.631287E-2,4.5053396E-2,4.8328456E-2,1.21091604E-1,3.0308982E-2,-3.840246E-2,7.40729E-2,-8.235099E-2,-1.5161152E-2,-6.495018E-2,7.8370355E-2,-3.7427458E-3,-6.563705E-2,2.708504E-2,-1.0429194E-1,-2.4160601E-2,-6.461609E-2,3.7006404E-2],"categories":[],"categories_nodes":[],"categories_segments":[],"categories_sizes":[],"default_left":[0,0,0,0,0,0,0,0,0,0,0,0,0,0,0,0,0,0,0,0,0,0,0,0,0,0,0,0,0,0,0,0,0,0,0,0,0,0,0,0,0,0,0,0,0,0,0,0,0,0,0,0,0],"id":10,"left_children":[1,3,5,7,9,11,13,15,17,19,21,23,25,27,29,31,33,-1,35,37,39,41,-1,43,-1,45,-1,47,49,-1,51,-1,-1,-1,-1,-1,-1,-1,-1,-1,-1,-1,-1,-1,-1,-1,-1,-1,-1,-1,-1,-1,-1],"loss_changes":[1.8910454E1,4.217255E0,3.5235577E0,4.4233294E0,1.7920313E0,4.810203E0,3.0529623E0,4.452253E0,2.1161904E0,2.928932E0,3.046196E0,1.8168268E0,2.1114612E0,1.1141739E0,3.2494304E0,4.151653E0,1.5360271E0,0E0,2.0816693E0,9.215889E-1,1.7629505E0,3.4242804E0,0E0,1.1982532E0,0E0,1.3265178E0,0E0,1.544093E0,3.2805443E-1,0E0,1.358457E0,0E0,0E0,0E0,0E0,0E0,0E0,0E0,0E0,0E0,0E0,0E0,0E0,0E0,0E0,0E0,0E0,0E0,0E0,0E0,0E0,0E0,0E0],"parents":[2147483647,0,0,1,1,2,2,3,3,4,4,5,5,6,6,7,7,8,8,9,9,10,10,11,11,12,12,13,13,14,14,15,15,16,16,18,18,19,19,20,20,21,21,23,23,25,25,27,27,28,28,30,30],"right_children":[2,4,6,8,10,12,14,16,18,20,22,24,26,28,30,32,34,-1,36,38,40,42,-1,44,-1,46,-1,48,50,-1,52,-1,-1,-1,-1,-1,-1,-1,-1,-1,-1,-1,-1,-1,-1,-1,-1,-1,-1,-1,-1,-1,-1],"split_conditions":[3E0,4.1E1,4E0,3.5E1,5E0,4.2E1,2E0,4E0,3.8E1,3E1,4.3E1,4.4E1,2E0,3.2E1,1.3E1,3E0,2E0,-9.0102226E-2,3.1E1,9.3E1,3E0,4E0,1.4903869E-1,2.7E1,-9.673744E-2,4E0,-5.0222367E-2,3E1,6.3E1,1.0185733E-1,4.7E1,6.820961E-2,1.3732155E-2,-5.0559755E-2,9.84942E-3,-6.631287E-2,4.5053396E-2,4.8328456E-2,1.21091604E-1,3.0308982E-2,-3.840246E-2,7.40729E-2,-8.235099E-2,-1.5161152E-2,-6.495018E-2,7.8370355E-2,-3.7427458E-3,-6.563705E-2,2.708504E-2,-1.0429194E-1,-2.4160601E-2,-6.461609E-2,3.7006404E-2],"split_indices":[0,2,3,2,3,2,5,6,2,4,4,4,5,4,2,3,0,0,4,2,6,6,0,2,0,6,0,4,4,0,4,0,0,0,0,0,0,0,0,0,0,0,0,0,0,0,0,0,0,0,0,0,0],"split_type":[0,0,0,0,0,0,0,0,0,0,0,0,0,0,0,0,0,0,0,0,0,0,0,0,0,0,0,0,0,0,0,0,0,0,0,0,0,0,0,0,0,0,0,0,0,0,0,0,0,0,0,0,0],"sum_hessian":[1.9227396E2,1.2339744E2,6.8876526E1,8.9079636E1,3.4317802E1,3.9652435E1,2.9224087E1,7.942462E1,9.655009E0,2.614721E1,8.170593E0,2.9568476E1,1.0083961E1,2.299072E1,6.2333655E0,6.3521652E1,1.5902972E1,4.712507E0,4.942503E0,1.1771779E1,1.4375429E1,4.4142294E0,3.7563643E0,2.5478367E1,4.0901093E0,8.554113E0,1.5298469E0,7.789936E0,1.5200786E1,1.1597482E0,5.0736175E0,2.0155071E1,4.336658E1,9.223037E0,6.679935E0,1.8412764E0,3.1012266E0,9.155106E0,2.6166737E0,9.587254E0,4.7881756E0,3.2829523E0,1.131277E0,1.9607433E1,5.8709335E0,5.9296107E0,2.6245027E0,5.999348E0,1.790588E0,1.3939029E1,1.2617563E0,4.0255075E0,1.04811E0],"tree_param":{"num_deleted":"0","num_feature":"7","num_nodes":"53","size_leaf_vector":"1"}},{"base_weights":[3.8501862E-3,1.9209532E-1,-4.4390917E-1,6.561857E-1,1.1997134E-1,7.178796E-2,-5.8768195E-1,-2.0800991E-2,7.19594E-1,1.136262E-2,4.1275364E-1,4.6201867E-1,-4.0162176E-1,-3.503931E-1,-9.41575E-1,1.0943625E0,4.6305865E-1,9.453665E-2,-9.441644E-1,-2.4771804E-1,5.092346E-1,-3.7401292E-2,6.9663745E-1,-3.9610025E-2,-8.327737E-2,3.3202422E-1,-4.3819013E-1,-1.0350182E-1,1.3881694E-2,1.4078175E-1,2.5687922E-2,-1.9671014E-2,7.996847E-2,-7.3117405E-2,1.4229874E-2,-1.1489011E-1,-2.3768408E-2,-8.697157E-2,1.8557144E-2,6.2415924E-2,-9.975185E-3,7.6221153E-3,1.2732095E-1,-4.9008533E-2,4.1580897E-2,7.947104E-2,-3.159691E-2,-6.1662693E-2,1.3696787E-2],"categories":[],"categories_nodes":[],"categories_segments":[],"categories_sizes":[],"default_left":[0,0,0,0,0,0,0,0,0,0,0,0,0,0,0,0,0,0,0,0,0,0,0,0,0,0,0,0,0,0,0,0,0,0,0,0,0,0,0,0,0,0,0,0,0,0,0,0,0],"id":11,"left_children":[1,3,5,7,9,11,13,-1,15,17,19,21,23,25,27,29,31,33,35,37,39,-1,41,43,-1,45,47,-1,-1,-1,-1,-1,-1,-1,-1,-1,-1,-1,-1,-1,-1,-1,-1,-1,-1,-1,-1,-1,-1],"loss_changes":[1.622029E1,4.4555855E0,4.26542E0,1.1358776E0,3.7624521E0,2.6442935E0,3.4196606E0,0E0,1.1268024E0,7.0386677E0,2.1670003E0,1.7827784E0,9.8914325E-1,1.8423679E0,1.893178E0,1.2583323E0,2.7825122E0,3.3122423E0,7.5285673E-1,1.4428619E0,2.0409527E0,0E0,2.1956491E0,1.1494845E0,0E0,1.3896103E0,2.7040162E0,0E0,0E0,0E0,0E0,0E0,0E0,0E0,0E0,0E0,0E0,0E0,0E0,0E0,0E0,0E0,0E0,0E0,0E0,0E0,0E0,0E0,0E0],"parents":[2147483647,0,0,1,1,2,2,3,3,4,4,5,5,6,6,8,8,9,9,10,10,11,11,12,12,13,13,14,14,15,15,16,16,17,17,18,18,19,19,20,20,22,22,23,23,25,25,26,26],"right_children":[2,4,6,8,10,12,14,-1,16,18,20,22,24,26,28,30,32,34,36,38,40,-1,42,44,-1,46,48,-1,-1,-1,-1,-1,-1,-1,-1,-1,-1,-1,-1,-1,-1,-1,-1,-1,-1,-1,-1,-1,-1],"split_conditions":[4E0,2E0,3E0,2.4E1,4E1,4E0,4E0,-2.0800991E-2,3E1,3.6E1,2E0,1.6E1,4.2E1,2.3E1,6.9E1,3.7E1,3.4E1,7E0,3.9E1,2E0,2E0,-3.7401292E-2,3.3E1,3.3E1,-8.327737E-2,2.1E1,4.4E1,-1.0350182E-1,1.3881694E-2,1.4078175E-1,2.5687922E-2,-1.9671014E-2,7.996847E-2,-7.3117405E-2,1.4229874E-2,-1.1489011E-1,-2.3768408E-2,-8.697157E-2,1.8557144E-2,6.2415924E-2,-9.975185E-3,7.6221153E-3,1.2732095E-1,-4.9008533E-2,4.1580897E-2,7.947104E-2,-3.159691E-2,-6.1662693E-2,1.3696787E-2],"split_indices":[0,6,1,4,2,3,6,0,4,2,3,2,4,4,2,2,4,2,2,0,5,0,4,4,0,2,2,0,0,0,0,0,0,0,0,0,0,0,0,0,0,0,0,0,0,0,0,0,0],"split_type":[0,0,0,0,0,0,0,0,0,0,0,0,0,0,0,0,0,0,0,0,0,0,0,0,0,0,0,0,0,0,0,0,0,0,0,0,0,0,0,0,0,0,0,0,0,0,0,0,0],"sum_hessian":[1.9042603E2,1.3446556E2,5.596047E1,1.6997175E1,1.1746838E2,1.2309246E1,4.3651222E1,1.0059907E0,1.5991183E1,8.6441414E1,3.102697E1,6.760577E0,5.548669E0,2.732179E1,1.632943E1,5.171008E0,1.0820175E1,8.0348526E1,6.0928893E0,3.7548926E0,2.7272078E1,1.3512948E0,5.4092827E0,3.6096978E0,1.9389709E0,2.7973316E0,2.452446E1,1.5068179E1,1.2612511E0,3.2671597E0,1.9038484E0,3.7959538E0,7.024222E0,3.6111057E0,7.673742E1,4.238382E0,1.8545076E0,1.1281565E0,2.626736E0,2.2921537E1,4.3505406E0,3.1509364E0,2.258346E0,1.776431E0,1.8332669E0,1.4999243E0,1.2974073E0,1.866251E1,5.8619494E0],"tree_param":{"num_deleted":"0","num_feature":"7","num_nodes":"49","size_leaf_vector":"1"}},{"base_weights":[2.4373503E-3,1.7269734E-1,-4.1626027E-1,6.0689133E-1,1.05845384E-1,1.6953596E-1,-5.3224987E-1,2.6946178E-1,8.295802E-1,5.8011133E-2,6.794526E-1,-2.749321E-1,5.0327295E-1,-2.1257314E-1,-7.310287E-1,6.779911E-1,-4.0170204E-2,1.1168935E-1,4.1032514E-1,2.4213257E-1,-1.1074196E-1,8.676498E-2,1.4815325E-1,1.74832E-2,-6.071293E-2,6.440546E-1,-3.1589412E-3,-3.819147E-1,7.075131E-2,-4.7905585E-1,-1.00559376E-1,8.082591E-2,1.9383214E-2,-7.1942344E-2,4.5379974E-2,-1.3937238E-2,8.508264E-2,4.1153975E-2,-2.5526494E-2,-5.6557753E-3,-8.6674415E-2,-3.800831E-2,5.481226E-2,8.845606E-2,1.2275288E-2,4.159443E-2,-5.5784088E-2,-7.092873E-2,4.1657322E-4],"categories":[],"categories_nodes":[],"categories_segments":[],"categories_sizes":[],"default_left":[0,0,0,0,0,0,0,0,0,0,0,0,0,0,0,0,0,0,0,0,0,0,0,0,0,0,0,0,0,0,0,0,0,0,0,0,0,0,0,0,0,0,0,0,0,0,0,0,0],"id":12,"left_children":[1,3,5,7,9,11,13,15,17,19,21,23,25,27,29,31,33,-1,35,37,39,-1,41,-1,-1,43,-1,45,-1,47,-1,-1,-1,-1,-1,-1,-1,-1,-1,-1,-1,-1,-1,-1,-1,-1,-1,-1,-1],"loss_changes":[1.3585273E1,3.8679776E0,3.8336067E0,1.1187668E0,3.2148805E0,1.6015596E0,2.7822227E0,1.1129577E0,7.800665E-1,3.4623137E0,7.749605E-1,8.3481574E-1,4.7116792E-1,3.251531E0,1.4619284E0,8.0260515E-2,2.2814987E0,0E0,1.5135841E0,4.587038E0,2.3423584E0,0E0,9.6248025E-1,0E0,0E0,4.9151266E-1,0E0,2.5915039E0,0E0,1.8452814E0,0E0,0E0,0E0,0E0,0E0,0E0,0E0,0E0,0E0,0E0,0E0,0E0,0E0,0E0,0E0,0E0,0E0,0E0,0E0],"parents":[2147483647,0,0,1,1,2,2,3,3,4,4,5,5,6,6,7,7,8,8,9,9,10,10,11,11,12,12,13,13,14,14,15,15,16,16,18,18,19,19,20,20,22,22,25,25,27,27,29,29],"right_children":[2,4,6,8,10,12,14,16,18,20,22,24,26,28,30,32,34,-1,36,38,40,-1,42,-1,-1,44,-1,46,-1,48,-1,-1,-1,-1,-1,-1,-1,-1,-1,-1,-1,-1,-1,-1,-1,-1,-1,-1,-1],"split_conditions":[4E0,2E0,2E0,3E0,8.1E1,2.4E1,3.1E1,1.9E1,3.4E1,2E0,3E0,3.4E1,2E0,5.9E1,4E0,4E0,3.6E1,1.1168935E-1,3.4E1,4E0,6.7E1,8.676498E-2,4E0,1.74832E-2,-6.071293E-2,4E0,-3.1589412E-3,2.3E1,7.075131E-2,3.6E1,-1.00559376E-1,8.082591E-2,1.9383214E-2,-7.1942344E-2,4.5379974E-2,-1.3937238E-2,8.508264E-2,4.1153975E-2,-2.5526494E-2,-5.6557753E-3,-8.6674415E-2,-3.800831E-2,5.481226E-2,8.845606E-2,1.2275288E-2,4.159443E-2,-5.5784088E-2,-7.092873E-2,4.1657322E-4],"split_indices":[0,6,1,1,2,2,4,2,2,0,6,4,5,2,6,3,2,0,4,6,2,0,6,0,0,6,0,4,0,2,0,0,0,0,0,0,0,0,0,0,0,0,0,0,0,0,0,0,0],"split_type":[0,0,0,0,0,0,0,0,0,0,0,0,0,0,0,0,0,0,0,0,0,0,0,0,0,0,0,0,0,0,0,0,0,0,0,0,0,0,0,0,0,0,0,0,0,0,0,0,0],"sum_hessian":[1.885619E2,1.344688E2,5.4093105E1,1.6863647E1,1.17605156E2,8.864088E0,4.5229015E1,7.583213E0,9.280434E0,1.095691E2,8.036051E0,3.8769717E0,4.9871163E0,1.813448E1,2.7094538E1,2.7565484E0,4.826665E0,4.5193505E0,4.761083E0,5.219063E1,5.7378468E1,5.466599E0,2.5694525E0,1.8482813E0,2.0286903E0,3.7863557E0,1.2007605E0,1.5809635E1,2.324844E0,1.5559818E1,1.15347185E1,1.644634E0,1.1119143E0,1.8400367E0,2.9866278E0,2.4221318E0,2.3389513E0,3.9059937E1,1.3130696E1,5.4544003E1,2.8344676E0,1.1286168E0,1.4408356E0,2.114149E0,1.6722066E0,2.6097245E0,1.3199911E1,1.02218E1,5.3380184E0],"tree_param":{"num_deleted":"0","num_feature":"7","num_nodes":"49","size_leaf_vector":"1"}},{"base_weights":[2.9906265E-3,1.8111797E-1,-3.3861807E-1,8.2295015E-2,4.2891634E-1,-1.5239125E-1,-5.9059006E-1,3.495049E-1,-5.8459017E-2,2.9048556E-1,7.910083E-1,-3.292727E-1,3.072507E-1,-7.65628E-1,4.891416E-2,-5.4054374E-1,5.017919E-1,7.4139774E-2,-1.0133908E-1,6.1520743E-1,3.820064E-3,1.8975544E-1,1.3228182E-1,-2.0785195E-1,-9.161666E-2,4.7907394E-1,-4.885341E-2,-3.7684873E-1,-9.4068927E-1,9.793793E-2,-3.1940925E-1,-9.634868E-3,-9.324773E-2,1.2735894E-1,2.758576E-2,3.7906945E-2,-1.7290771E-2,3.952285E-2,1.08702116E-1,-4.2045724E-2,2.5980575E-2,6.297851E-2,-8.030244E-2,-7.796655E-3,-5.7740368E-2,2.0005617E-2,1.0718761E-1,-6.7310065E-2,1.558844E-2,-9.9398755E-2,-1.8864183E-2,-5.2839477E-2,2.1951428E-2],"categories":[],"categories_nodes":[],"categories_segments":[],"categories_sizes":[],"default_left":[0,0,0,0,0,0,0,0,0,0,0,0,0,0,0,0,0,0,0,0,0,0,0,0,0,0,0,0,0,0,0,0,0,0,0,0,0,0,0,0,0,0,0,0,0,0,0,0,0,0,0,0,0],"id":13,"left_children":[1,3,5,7,9,11,13,15,17,19,21,23,25,27,29,31,33,-1,35,37,39,41,-1,43,-1,45,-1,47,49,-1,51,-1,-1,-1,-1,-1,-1,-1,-1,-1,-1,-1,-1,-1,-1,-1,-1,-1,-1,-1,-1,-1,-1],"loss_changes":[1.1470327E1,2.9984555E0,2.941649E0,3.3980174E0,1.52875E0,3.2311668E0,3.0720072E0,4.4902716E0,2.121913E0,2.5073023E0,2.6659741E0,1.8250413E0,1.7675847E0,1.0981693E0,2.631447E0,7.856989E-1,4.373864E0,0E0,2.0432012E0,8.817401E-1,1.7737279E0,2.8862467E0,0E0,1.1419106E0,0E0,1.394727E0,0E0,1.4141021E0,3.7560368E-1,0E0,7.4681E-1,0E0,0E0,0E0,0E0,0E0,0E0,0E0,0E0,0E0,0E0,0E0,0E0,0E0,0E0,0E0,0E0,0E0,0E0,0E0,0E0,0E0,0E0],"parents":[2147483647,0,0,1,1,2,2,3,3,4,4,5,5,6,6,7,7,8,8,9,9,10,10,11,11,12,12,13,13,14,14,15,15,16,16,18,18,19,19,20,20,21,21,23,23,25,25,27,27,28,28,30,30],"right_children":[2,4,6,8,10,12,14,16,18,20,22,24,26,28,30,32,34,-1,36,38,40,42,-1,44,-1,46,-1,48,50,-1,52,-1,-1,-1,-1,-1,-1,-1,-1,-1,-1,-1,-1,-1,-1,-1,-1,-1,-1,-1,-1,-1,-1],"split_conditions":[3E0,4.1E1,4E0,1.4E1,5E0,4.2E1,2E0,7E0,2.2E1,3E1,4.3E1,4.4E1,2E0,3.2E1,1.3E1,4E0,3E0,7.4139774E-2,2E0,9.3E1,3E0,4E0,1.3228182E-1,2.7E1,-9.161666E-2,4E1,-4.885341E-2,2.8E1,6.3E1,9.793793E-2,4.6E1,-9.634868E-3,-9.324773E-2,1.2735894E-1,2.758576E-2,3.7906945E-2,-1.7290771E-2,3.952285E-2,1.08702116E-1,-4.2045724E-2,2.5980575E-2,6.297851E-2,-8.030244E-2,-7.796655E-3,-5.7740368E-2,2.0005617E-2,1.0718761E-1,-6.7310065E-2,1.558844E-2,-9.9398755E-2,-1.8864183E-2,-5.2839477E-2,2.1951428E-2],"split_indices":[0,2,3,2,3,2,5,2,4,4,4,4,5,4,2,3,1,0,6,2,3,6,0,2,0,4,0,4,4,0,4,0,0,0,0,0,0,0,0,0,0,0,0,0,0,0,0,0,0,0,0,0,0],"split_type":[0,0,0,0,0,0,0,0,0,0,0,0,0,0,0,0,0,0,0,0,0,0,0,0,0,0,0,0,0,0,0,0,0,0,0,0,0,0,0,0,0,0,0,0,0,0,0,0,0,0,0,0,0],"sum_hessian":[1.8649425E2,1.22886505E2,6.3607735E1,8.880345E1,3.4083057E1,3.7498344E1,2.610939E1,3.0126913E1,5.8676537E1,2.5960415E1,8.122642E0,2.7282866E1,1.021548E1,2.0343872E1,5.7655168E0,4.029106E0,2.6097807E1,2.1567063E0,5.651983E1,1.1634871E1,1.4325544E1,4.449239E0,3.6734023E0,2.3728004E1,3.5548613E0,8.728777E0,1.4867032E0,7.295209E0,1.3048664E1,1.1645614E0,4.6009555E0,2.4726148E0,1.5564914E0,4.859757E0,2.123805E1,6.7711964E0,4.9748634E1,9.188495E0,2.446376E0,5.1489835E0,9.176561E0,3.3361793E0,1.1130598E0,1.845326E1,5.2747436E0,6.844643E0,1.884134E0,4.5188174E0,2.7763915E0,1.1884678E1,1.1639857E0,3.3294048E0,1.2715507E0],"tree_param":{"num_deleted":"0","num_feature":"7","num_nodes":"53","size_leaf_vector":"1"}},{"base_weights":[3.4111184E-3,1.4734115E-1,-3.6819917E-1,5.379365E-1,8.785922E-2,8.76642E-2,-5.068557E-1,2.180095E-1,7.569954E-1,-6.689223E-2,1.1641294E-1,4.279719E-1,-3.485403E-1,-2.7732253E-1,-8.7871724E-1,6.146816E-1,-7.1339056E-2,1.0323539E-1,3.6327118E-1,6.634565E-1,5.9415482E-2,-3.3820525E-2,6.355769E-1,-1.0222249E-2,-7.770662E-2,1.731277E-1,-4.147781E-1,-9.8213606E-2,1.5142879E-2,2.1212278E-2,7.617196E-2,-4.332615E-2,7.248392E-2,-1.5788682E-2,7.957695E-2,1.09700754E-1,-5.876901E-3,-5.6730867E-3,3.276163E-2,6.218565E-3,1.16563156E-1,-3.5742335E-2,5.5632032E-2,-1.2830232E-2,8.799609E-2,-5.046594E-2,4.07026E-2],"categories":[],"categories_nodes":[],"categories_segments":[],"categories_sizes":[],"default_left":[0,0,0,0,0,0,0,0,0,0,0,0,0,0,0,0,0,0,0,0,0,0,0,0,0,0,0,0,0,0,0,0,0,0,0,0,0,0,0,0,0,0,0,0,0,0,0],"id":14,"left_children":[1,3,5,7,9,11,13,15,17,-1,19,21,23,25,27,29,31,-1,33,35,37,-1,39,41,-1,43,45,-1,-1,-1,-1,-1,-1,-1,-1,-1,-1,-1,-1,-1,-1,-1,-1,-1,-1,-1,-1],"loss_changes":[9.992376E0,3.0810652E0,3.3414068E0,1.0684109E0,2.6287677E0,2.0815477E0,3.1826754E0,1.0260539E0,7.1371126E-1,0E0,3.5340667E0,1.4495127E0,8.9905846E-1,1.6991501E0,1.7318602E0,5.822146E-2,1.9980671E0,0E0,1.4049659E0,3.4199033E0,3.2860253E0,0E0,1.8890948E0,1.0858535E0,0E0,1.5724831E0,1.7146235E0,0E0,0E0,0E0,0E0,0E0,0E0,0E0,0E0,0E0,0E0,0E0,0E0,0E0,0E0,0E0,0E0,0E0,0E0,0E0,0E0],"parents":[2147483647,0,0,1,1,2,2,3,3,4,4,5,5,6,6,7,7,8,8,10,10,11,11,12,12,13,13,14,14,15,15,16,16,18,18,19,19,20,20,22,22,23,23,25,25,26,26],"right_children":[2,4,6,8,10,12,14,16,18,-1,20,22,24,26,28,30,32,-1,34,36,38,-1,40,42,-1,44,46,-1,-1,-1,-1,-1,-1,-1,-1,-1,-1,-1,-1,-1,-1,-1,-1,-1,-1,-1,-1],"split_conditions":[4E0,2E0,3E0,3E0,7E0,4E0,4E0,1.9E1,3.4E1,-6.689223E-2,1E1,1.6E1,4.2E1,3E0,6.9E1,1.1E1,5E0,1.0323539E-1,3.4E1,3.8E1,4E1,-3.3820525E-2,3.3E1,3.5E1,-7.770662E-2,4.8E1,5.4E1,-9.8213606E-2,1.5142879E-2,2.1212278E-2,7.617196E-2,-4.332615E-2,7.248392E-2,-1.5788682E-2,7.957695E-2,1.09700754E-1,-5.876901E-3,-5.6730867E-3,3.276163E-2,6.218565E-3,1.16563156E-1,-3.5742335E-2,5.5632032E-2,-1.2830232E-2,8.799609E-2,-5.046594E-2,4.07026E-2],"split_indices":[0,6,1,1,2,3,6,2,2,0,2,2,4,3,2,2,3,0,4,4,2,0,4,4,0,2,4,0,0,0,0,0,0,0,0,0,0,0,0,0,0,0,0,0,0,0,0],"split_type":[0,0,0,0,0,0,0,0,0,0,0,0,0,0,0,0,0,0,0,0,0,0,0,0,0,0,0,0,0,0,0,0,0,0,0,0,0,0,0,0,0,0,0,0,0,0,0],"sum_hessian":[1.8480838E2,1.3364806E2,5.116032E1,1.6599794E1,1.1704827E2,1.2017607E1,3.914271E1,7.5575275E0,9.042268E0,3.4403079E0,1.13607956E2,6.7614737E0,5.256133E0,2.5282652E1,1.3860062E1,2.7133682E0,4.8441596E0,4.3664703E0,4.6757975E0,9.716071E0,1.0389189E2,1.3073925E0,5.454081E0,3.5093675E0,1.7467657E0,5.850545E0,1.9432106E1,1.26379175E1,1.2221444E0,1.3794273E0,1.3339409E0,3.6436653E0,1.2004943E0,2.408505E0,2.2672925E0,5.7471423E0,3.9689288E0,7.3046875E1,3.0845015E1,3.1566577E0,2.2974231E0,2.4047503E0,1.1046172E0,4.6752577E0,1.1752874E0,1.7864199E1,1.567908E0],"tree_param":{"num_deleted":"0","num_feature":"7","num_nodes":"47","size_leaf_vector":"1"}},{"base_weights":[4.7152056E-3,1.3544656E-1,-3.429347E-1,5.076423E-1,7.9508625E-2,-1.3171746E-1,-6.260306E-1,-2.2998106E-2,5.675276E-1,-6.310363E-2,1.0574358E-1,-3.2669532E-1,3.5646167E-1,-7.4508417E-1,-1.4969209E-1,1.09303586E-1,3.7210557E-1,5.9968764E-1,5.3720452E-2,2.710701E-1,-4.6291623E-1,7.36569E-1,2.2524074E-4,1.846884E-2,-8.2639545E-1,-6.1845936E-2,1.2220078E-1,7.3093586E-2,1.488568E-3,9.847205E-2,-5.415072E-3,-5.1225605E-3,2.9482914E-2,-3.2215804E-2,5.8561582E-2,-1.9840288E-3,-9.1413185E-2,1.7395362E-2,1.0212519E-1,-4.2098317E-2,7.761006E-2,-2.566781E-2,-8.970421E-2,4.997609E-2,-3.6646936E-2],"categories":[],"categories_nodes":[],"categories_segments":[],"categories_sizes":[],"default_left":[0,0,0,0,0,0,0,0,0,0,0,0,0,0,0,0,0,0,0,0,0,0,0,0,0,0,0,0,0,0,0,0,0,0,0,0,0,0,0,0,0,0,0,0,0],"id":15,"left_children":[1,3,5,7,9,11,13,-1,15,-1,17,19,21,23,25,-1,27,29,31,33,35,37,39,-1,41,-1,43,-1,-1,-1,-1,-1,-1,-1,-1,-1,-1,-1,-1,-1,-1,-1,-1,-1,-1],"loss_changes":[8.40891E0,2.758492E0,2.9411063E0,8.981776E-1,2.2673743E0,2.9934664E0,1.0986528E0,0E0,1.2735791E0,0E0,2.9153347E0,1.9267459E0,1.2327054E0,1.424345E0,7.789368E-1,0E0,1.7122442E0,2.7801518E0,2.6687896E0,1.0724077E0,3.6574001E0,5.27812E-1,2.1896188E0,0E0,3.9969444E-1,0E0,9.8161983E-1,0E0,0E0,0E0,0E0,0E0,0E0,0E0,0E0,0E0,0E0,0E0,0E0,0E0,0E0,0E0,0E0,0E0,0E0],"parents":[2147483647,0,0,1,1,2,2,3,3,4,4,5,5,6,6,8,8,10,10,11,11,12,12,13,13,14,14,16,16,17,17,18,18,19,19,20,20,21,21,22,22,24,24,26,26],"right_children":[2,4,6,8,10,12,14,-1,16,-1,18,20,22,24,26,-1,28,30,32,34,36,38,40,-1,42,-1,44,-1,-1,-1,-1,-1,-1,-1,-1,-1,-1,-1,-1,-1,-1,-1,-1,-1,-1],"split_conditions":[4E0,2E0,4E0,2.4E1,7E0,4.6E1,2E0,-2.2998106E-2,2.8E1,-6.310363E-2,1E1,3E0,3E0,2.3E1,5E0,1.09303586E-1,2E0,3.8E1,4E1,1.6E1,3.1E1,6.4E1,4E1,1.846884E-2,2E0,-6.1845936E-2,2.6E1,7.3093586E-2,1.488568E-3,9.847205E-2,-5.415072E-3,-5.1225605E-3,2.9482914E-2,-3.2215804E-2,5.8561582E-2,-1.9840288E-3,-9.1413185E-2,1.7395362E-2,1.0212519E-1,-4.2098317E-2,7.761006E-2,-2.566781E-2,-8.970421E-2,4.997609E-2,-3.6646936E-2],"split_indices":[0,6,3,4,2,2,5,0,4,0,2,1,3,4,3,0,0,4,2,2,4,2,4,0,1,0,2,0,0,0,0,0,0,0,0,0,0,0,0,0,0,0,0,0,0],"split_type":[0,0,0,0,0,0,0,0,0,0,0,0,0,0,0,0,0,0,0,0,0,0,0,0,0,0,0,0,0,0,0,0,0,0,0,0,0,0,0,0,0,0,0,0,0],"sum_hessian":[1.8299762E2,1.3343187E2,4.9565746E1,1.6378527E1,1.17053345E2,2.9225756E1,2.0339993E1,1.0165856E0,1.5361941E1,3.3471174E0,1.1370623E2,2.1120895E1,8.104859E0,1.5821468E1,4.5185237E0,2.9190724E0,1.2442869E1,9.831525E0,1.038747E2,3.7361164E0,1.7384779E1,3.4045424E0,4.7003174E0,1.1701173E0,1.4651351E1,1.1908131E0,3.3277106E0,5.6855297E0,6.7573395E0,5.869202E0,3.9623227E0,7.292192E1,3.0952785E1,1.2861872E0,2.4499292E0,9.298243E0,8.086536E0,1.6851816E0,1.7193608E0,3.3429177E0,1.3573996E0,2.12753E0,1.2523821E1,1.8644719E0,1.4632386E0],"tree_param":{"num_deleted":"0","num_feature":"7","num_nodes":"45","size_leaf_vector":"1"}},{"base_weights":[4.7395285E-3,1.4247052E-1,-2.773508E-1,1.0933763E-1,7.364444E-1,-1.1752112E-1,-5.0824493E-1,2.677668E-1,-7.0929214E-2,3.958832E-3,8.837695E-1,-2.7217254E-1,2.6031682E-1,-6.904024E-1,1.0000995E-1,4.0117985E-1,-1.9985677E-1,2.5507236E-1,-1.813365E-1,8.707518E-3,1.19680695E-1,-1.5574223E-1,-8.724167E-2,4.2306808E-1,-4.9785357E-2,-2.9465988E-1,-8.850306E-1,9.1070846E-2,-2.541103E-1,6.96336E-2,2.4962246E-2,-6.9929644E-2,2.9396046E-2,1.2542076E-1,-1.8587116E-3,3.0662015E-2,-3.239947E-2,-3.2321874E-3,-5.2394975E-2,1.7724438E-2,9.3176045E-2,-6.020386E-2,2.1650366E-2,-9.4486095E-2,-1.43265715E-2,-4.6577703E-2,2.4178816E-2],"categories":[],"categories_nodes":[],"categories_segments":[],"categories_sizes":[],"default_left":[0,0,0,0,0,0,0,0,0,0,0,0,0,0,0,0,0,0,0,0,0,0,0,0,0,0,0,0,0,0,0,0,0,0,0,0,0,0,0,0,0,0,0,0,0,0,0],"id":16,"left_children":[1,3,5,7,9,11,13,15,17,-1,19,21,23,25,27,29,31,33,35,-1,-1,37,-1,39,-1,41,43,-1,45,-1,-1,-1,-1,-1,-1,-1,-1,-1,-1,-1,-1,-1,-1,-1,-1,-1,-1],"loss_changes":[7.1244464E0,2.3438635E0,2.1605616E0,3.3848891E0,6.153226E-1,2.2243648E0,2.7625613E0,4.0066075E0,2.0589406E0,0E0,1.1881471E0,1.7258745E0,1.5944511E0,1.1898746E0,2.0905664E0,2.031474E0,3.8156664E0,4.005025E0,3.0478182E0,0E0,0E0,1.0523245E0,0E0,1.0570035E0,0E0,1.3414602E0,4.0278435E-1,0E0,6.677825E-1,0E0,0E0,0E0,0E0,0E0,0E0,0E0,0E0,0E0,0E0,0E0,0E0,0E0,0E0,0E0,0E0,0E0,0E0],"parents":[2147483647,0,0,1,1,2,2,3,3,4,4,5,5,6,6,7,7,8,8,10,10,11,11,12,12,13,13,14,14,15,15,16,16,17,17,18,18,21,21,23,23,25,25,26,26,28,28],"right_children":[2,4,6,8,10,12,14,16,18,-1,20,22,24,26,28,30,32,34,36,-1,-1,38,-1,40,-1,42,44,-1,46,-1,-1,-1,-1,-1,-1,-1,-1,-1,-1,-1,-1,-1,-1,-1,-1,-1,-1],"split_conditions":[3E0,1.09E2,4E0,2E0,2E0,4.2E1,2E0,4E0,2.6E1,3.958832E-3,1.24E2,4.4E1,2E0,3.2E1,1.3E1,1.5E1,2.2E1,3E0,1.3E1,8.707518E-3,1.19680695E-1,2.7E1,-8.724167E-2,4E1,-4.9785357E-2,2.8E1,6.3E1,9.1070846E-2,4.6E1,6.96336E-2,2.4962246E-2,-6.9929644E-2,2.9396046E-2,1.2542076E-1,-1.8587116E-3,3.0662015E-2,-3.239947E-2,-3.2321874E-3,-5.2394975E-2,1.7724438E-2,9.3176045E-2,-6.020386E-2,2.1650366E-2,-9.4486095E-2,-1.43265715E-2,-4.6577703E-2,2.4178816E-2],"split_indices":[0,2,3,0,0,2,5,6,4,0,2,4,5,4,2,2,2,1,2,0,0,2,0,4,0,4,4,0,4,0,0,0,0,0,0,0,0,0,0,0,0,0,0,0,0,0,0],"split_type":[0,0,0,0,0,0,0,0,0,0,0,0,0,0,0,0,0,0,0,0,0,0,0,0,0,0,0,0,0,0,0,0,0,0,0,0,0,0,0,0,0,0,0,0,0,0,0],"sum_hessian":[1.813542E2,1.22189804E2,5.91644E1,1.16855484E2,5.3343244E0,3.5854298E1,2.33101E1,6.1936565E1,5.4918915E1,1.1523514E0,4.181973E0,2.5639534E1,1.0214763E1,1.7834154E1,5.475948E0,4.8298958E1,1.3637608E1,1.3562473E1,4.135644E1,1.5402161E0,2.6417568E0,2.252901E1,3.1105232E0,8.773421E0,1.4413419E0,6.708187E0,1.1125966E1,1.186928E0,4.28902E0,1.5166956E1,3.3132004E1,6.5733314E0,7.0642767E0,2.1456335E0,1.141684E1,9.095684E0,3.2260757E1,1.7687931E1,4.8410783E0,6.824121E0,1.9492999E0,4.07811E0,2.6300771E0,1.004217E1,1.0837967E0,3.0485387E0,1.2404814E0],"tree_param":{"num_deleted":"0","num_feature":"7","num_nodes":"47","size_leaf_vector":"1"}},{"base_weights":[4.7338177E-3,1.1543122E-1,-3.0301815E-1,-7.006726E-1,1.3830741E-1,9.474968E-2,-4.3358707E-1,-1.8221204E-3,-9.654933E-2,5.086371E-1,8.4142104E-2,3.7967795E-1,-2.934563E-1,-2.0677419E-1,-8.2674456E-1,9.2043415E-2,2.6902187E-1,1.0329572E-1,-7.3078E-2,-3.0538356E-2,5.5978346E-1,3.7309382E-2,-7.3555134E-2,3.1174E-1,-3.093679E-1,-9.404743E-2,1.7195364E-2,8.434256E-4,9.4663605E-2,3.3054132E-2,2.329515E-3,5.1515973E-3,1.028957E-1,-3.108393E-2,5.6704927E-2,7.5696275E-2,-3.6275588E-2,-4.783806E-2,1.2596162E-2],"categories":[],"categories_nodes":[],"categories_segments":[],"categories_sizes":[],"default_left":[0,0,0,0,0,0,0,0,0,0,0,0,0,0,0,0,0,0,0,0,0,0,0,0,0,0,0,0,0,0,0,0,0,0,0,0,0,0,0],"id":17,"left_children":[1,3,5,7,9,11,13,-1,-1,15,17,19,21,23,25,-1,27,29,-1,-1,31,33,-1,35,37,-1,-1,-1,-1,-1,-1,-1,-1,-1,-1,-1,-1,-1,-1],"loss_changes":[6.195181E0,2.5932395E0,2.5398054E0,6.7111504E-1,2.582969E0,1.5173432E0,3.075035E0,0E0,0E0,1.38096E0,1.8766885E0,1.1291815E0,8.966683E-1,1.3953551E0,1.6364126E0,0E0,2.0838754E0,2.0579488E0,0E0,0E0,1.4976239E0,9.7888833E-1,0E0,1.6353502E0,1.5969733E0,0E0,0E0,0E0,0E0,0E0,0E0,0E0,0E0,0E0,0E0,0E0,0E0,0E0,0E0],"parents":[2147483647,0,0,1,1,2,2,3,3,4,4,5,5,6,6,9,9,10,10,11,11,12,12,13,13,14,14,16,16,17,17,20,20,21,21,23,23,24,24],"right_children":[2,4,6,8,10,12,14,-1,-1,16,18,20,22,24,26,-1,28,30,-1,-1,32,34,-1,36,38,-1,-1,-1,-1,-1,-1,-1,-1,-1,-1,-1,-1,-1,-1],"split_conditions":[4E0,6E0,3E0,3E0,2E0,4E0,4E0,-1.8221204E-3,-9.654933E-2,1.9E1,6.7E1,1.6E1,4.2E1,2.4E1,6.9E1,9.2043415E-2,5E0,1.4E1,-7.3078E-2,-3.0538356E-2,3.3E1,3.5E1,-7.3555134E-2,2.1E1,4.4E1,-9.404743E-2,1.7195364E-2,8.434256E-4,9.4663605E-2,3.3054132E-2,2.329515E-3,5.1515973E-3,1.028957E-1,-3.108393E-2,5.6704927E-2,7.5696275E-2,-3.6275588E-2,-4.783806E-2,1.2596162E-2],"split_indices":[0,2,1,3,6,3,6,0,0,2,4,2,4,4,2,0,3,2,0,0,4,4,0,2,2,0,0,0,0,0,0,0,0,0,0,0,0,0,0],"split_type":[0,0,0,0,0,0,0,0,0,0,0,0,0,0,0,0,0,0,0,0,0,0,0,0,0,0,0,0,0,0,0,0,0,0,0,0,0,0,0],"sum_hessian":[1.798243E2,1.3271283E2,4.711146E1,2.8107557E0,1.2990207E2,1.1710546E1,3.5400913E1,1.0845758E0,1.7261801E0,1.550481E1,1.1439726E2,6.7663054E0,4.9442406E0,2.3417355E1,1.198356E1,4.658139E0,1.0846671E1,1.1262345E2,1.7738134E0,1.2637684E0,5.502537E0,3.351975E0,1.5922654E0,3.5313132E0,1.9886042E1,1.0810753E1,1.1728066E0,8.565222E0,2.281449E0,2.8509386E1,8.411407E1,3.1739352E0,2.3286018E0,2.2720144E0,1.0799605E0,2.0535421E0,1.477771E0,1.4253398E1,5.632644E0],"tree_param":{"num_deleted":"0","num_feature":"7","num_nodes":"39","size_leaf_vector":"1"}},{"base_weights":[4.0070773E-3,1.2017573E-1,-2.4327195E-1,8.898929E-2,6.887054E-1,-9.774668E-2,-4.6172187E-1,2.3114607E-1,-7.275074E-2,3.2341075E-3,8.313933E-1,-3.8298792E-1,8.412832E-2,-6.473625E-1,1.2992072E-1,3.5022217E-1,-1.8931766E-1,2.2922543E-1,-1.75369E-1,8.070558E-3,1.134569E-1,-2.1112223E-1,-6.149921E-1,5.9528196E-1,-4.9212284E-2,-2.6041958E-1,-8.5037106E-1,8.589106E-2,-2.1035479E-1,6.062314E-2,2.1931272E-2,-7.2023615E-2,2.2257498E-2,-5.906976E-2,4.9207844E-2,2.5281867E-2,-3.0303687E-2,1.9462042E-2,-3.291144E-2,-8.08573E-2,-2.643243E-2,8.8599704E-2,9.02433E-3,-1.2883234E-2,6.883249E-2,-4.94917E-2,3.4865957E-2,-9.144404E-2,-1.2108915E-2,-6.272687E-2,6.813604E-3],"categories":[],"categories_nodes":[],"categories_segments":[],"categories_sizes":[],"default_left":[0,0,0,0,0,0,0,0,0,0,0,0,0,0,0,0,0,0,0,0,0,0,0,0,0,0,0,0,0,0,0,0,0,0,0,0,0,0,0,0,0,0,0,0,0,0,0,0,0,0,0],"id":18,"left_children":[1,3,5,7,9,11,13,15,17,-1,19,21,23,25,27,29,31,33,35,-1,-1,37,39,41,43,45,47,-1,49,-1,-1,-1,-1,-1,-1,-1,-1,-1,-1,-1,-1,-1,-1,-1,-1,-1,-1,-1,-1,-1,-1],"loss_changes":[5.186307E0,2.1162453E0,1.7895448E0,2.7201576E0,5.57348E-1,1.8949751E0,2.5889707E0,3.2112887E0,1.7681024E0,0E0,1.0654399E0,4.347899E-1,1.579594E0,1.1552954E0,1.7384031E0,1.5193844E0,3.333901E0,3.4320703E0,2.3826332E0,0E0,0E0,5.2638876E-1,1.5984583E-1,6.2219083E-1,1.2022693E0,1.23983E0,4.0576506E-1,0E0,6.330918E-1,0E0,0E0,0E0,0E0,0E0,0E0,0E0,0E0,0E0,0E0,0E0,0E0,0E0,0E0,0E0,0E0,0E0,0E0,0E0,0E0,0E0,0E0],"parents":[2147483647,0,0,1,1,2,2,3,3,4,4,5,5,6,6,7,7,8,8,10,10,11,11,12,12,13,13,14,14,15,15,16,16,17,17,18,18,21,21,22,22,23,23,24,24,25,25,26,26,28,28],"right_children":[2,4,6,8,10,12,14,16,18,-1,20,22,24,26,28,30,32,34,36,-1,-1,38,40,42,44,46,48,-1,50,-1,-1,-1,-1,-1,-1,-1,-1,-1,-1,-1,-1,-1,-1,-1,-1,-1,-1,-1,-1,-1,-1],"split_conditions":[3E0,1.09E2,4E0,2E0,2E0,1.9E1,2E0,4E0,2.6E1,3.2341075E-3,1.24E2,3E0,2.6E1,3.2E1,1.3E1,1.5E1,2.1E1,1.1E1,1.3E1,8.070558E-3,1.134569E-1,8E0,1.3E1,2.7E1,5.3E1,3E1,6.3E1,8.589106E-2,3.7E1,6.062314E-2,2.1931272E-2,-7.2023615E-2,2.2257498E-2,-5.906976E-2,4.9207844E-2,2.5281867E-2,-3.0303687E-2,1.9462042E-2,-3.291144E-2,-8.08573E-2,-2.643243E-2,8.8599704E-2,9.02433E-3,-1.2883234E-2,6.883249E-2,-4.94917E-2,3.4865957E-2,-9.144404E-2,-1.2108915E-2,-6.272687E-2,6.813604E-3],"split_indices":[0,2,3,0,0,2,5,6,4,0,2,6,4,4,2,2,2,2,2,0,0,2,2,2,4,4,4,0,4,0,0,0,0,0,0,0,0,0,0,0,0,0,0,0,0,0,0,0,0,0,0],"split_type":[0,0,0,0,0,0,0,0,0,0,0,0,0,0,0,0,0,0,0,0,0,0,0,0,0,0,0,0,0,0,0,0,0,0,0,0,0,0,0,0,0,0,0,0,0,0,0,0,0,0,0],"sum_hessian":[1.7852582E2,1.21813385E2,5.6712425E1,1.1657523E2,5.2381563E0,3.4906284E1,2.1806143E1,6.181531E1,5.4759922E1,1.154431E0,4.0837255E0,1.3160466E1,2.1745817E1,1.6526438E1,5.279704E0,4.83029E1,1.3512412E1,1.3575967E1,4.1183956E1,1.5390679E0,2.5446577E0,8.657267E0,4.503199E0,3.7822824E0,1.7963535E1,6.4724593E0,1.0053979E1,1.1951374E0,4.0845666E0,1.5114247E1,3.3188652E1,5.5762177E0,7.936195E0,2.992899E0,1.0583069E1,9.233905E0,3.195005E1,1.8040837E0,6.8531833E0,2.060127E0,2.443072E0,1.9217507E0,1.8605316E0,1.6958157E1,1.0053791E0,4.808576E0,1.6638833E0,9.008654E0,1.045325E0,1.1342123E0,2.9503543E0],"tree_param":{"num_deleted":"0","num_feature":"7","num_nodes":"51","size_leaf_vector":"1"}},{"base_weights":[3.7939723E-3,9.619061E-2,-2.6420924E-1,-6.7148024E-1,1.17445625E-1,1.8107805E-1,-3.687884E-1,-2.064204E-3,-9.3209475E-2,4.656173E-1,6.723878E-2,-2.0483074E-1,4.4953707E-1,-8.534197E-2,-5.766652E-1,8.586409E-2,2.4353428E-1,3.1981256E-2,5.068392E-1,2.175225E-2,-5.4871555E-2,5.7887125E-1,-4.550987E-3,-2.4029996E-1,6.2879555E-2,-3.1398943E-1,-9.0793526E-1,-1.1872985E-4,8.8963695E-2,1.4794293E-2,-1.34958355E-2,2.1397164E-2,8.956414E-2,7.659412E-2,1.2470639E-2,4.2090487E-2,-4.1681137E-2,-5.678729E-2,5.395664E-3,-3.060774E-2,-9.72558E-2],"categories":[],"categories_nodes":[],"categories_segments":[],"categories_sizes":[],"default_left":[0,0,0,0,0,0,0,0,0,0,0,0,0,0,0,0,0,0,0,0,0,0,0,0,0,0,0,0,0,0,0,0,0,0,0,0,0,0,0,0,0],"id":19,"left_children":[1,3,5,7,9,11,13,-1,-1,15,17,19,21,23,25,-1,27,29,31,-1,-1,33,-1,35,-1,37,39,-1,-1,-1,-1,-1,-1,-1,-1,-1,-1,-1,-1,-1,-1],"loss_changes":[4.4366703E0,2.2523375E0,2.2059903E0,6.14727E-1,2.2493284E0,1.0667089E0,2.162129E0,0E0,0E0,1.2113206E0,1.769193E0,7.796952E-1,4.0160775E-1,2.0381515E0,1.5838208E0,0E0,1.8658705E0,2.1050315E0,7.745888E-1,0E0,0E0,3.0548716E-1,0E0,1.8952303E0,0E0,1.292461E0,5.1195145E-2,0E0,0E0,0E0,0E0,0E0,0E0,0E0,0E0,0E0,0E0,0E0,0E0,0E0,0E0],"parents":[2147483647,0,0,1,1,2,2,3,3,4,4,5,5,6,6,9,9,10,10,11,11,12,12,13,13,14,14,16,16,17,17,18,18,21,21,23,23,25,25,26,26],"right_children":[2,4,6,8,10,12,14,-1,-1,16,18,20,22,24,26,-1,28,30,32,-1,-1,34,-1,36,-1,38,40,-1,-1,-1,-1,-1,-1,-1,-1,-1,-1,-1,-1,-1,-1],"split_conditions":[4E0,6E0,2E0,3E0,2E0,2.4E1,3.1E1,-2.064204E-3,-9.3209475E-2,1.9E1,8.1E1,3.4E1,2E0,5.9E1,4E0,8.586409E-2,5E0,3.5E1,3.9E1,2.175225E-2,-5.4871555E-2,4E0,-4.550987E-3,2.3E1,6.2879555E-2,4E1,3E0,-1.1872985E-4,8.8963695E-2,1.4794293E-2,-1.34958355E-2,2.1397164E-2,8.956414E-2,7.659412E-2,1.2470639E-2,4.2090487E-2,-4.1681137E-2,-5.678729E-2,5.395664E-3,-3.060774E-2,-9.72558E-2],"split_indices":[0,2,1,3,6,2,4,0,0,2,2,4,5,2,6,0,3,4,4,0,0,6,0,4,0,4,3,0,0,0,0,0,0,0,0,0,0,0,0,0,0],"split_type":[0,0,0,0,0,0,0,0,0,0,0,0,0,0,0,0,0,0,0,0,0,0,0,0,0,0,0,0,0,0,0,0,0,0,0,0,0,0,0,0,0],"sum_hessian":[1.771419E2,1.3220432E2,4.49376E1,2.7376196E0,1.2946669E2,8.407561E0,3.6530037E1,1.0913568E0,1.6462629E0,1.5273673E1,1.14193016E2,3.546498E0,4.8610635E0,1.6052502E1,2.0477535E1,4.4796553E0,1.0794018E1,1.0670745E2,7.485567E0,1.7565678E0,1.7899301E0,3.719892E0,1.1411717E0,1.37355795E1,2.3169212E0,1.2507628E1,7.9699073E0,8.552707E0,2.2413106E0,6.303505E1,4.36724E1,5.153784E0,2.3317838E0,2.1484609E0,1.571431E0,2.6024241E0,1.1133156E1,7.079442E0,5.4281864E0,1.3289777E0,6.6409297E0],"tree_param":{"num_deleted":"0","num_feature":"7","num_nodes":"41","size_leaf_vector":"1"}},{"base_weights":[3.9263074E-3,1.9886449E-1,-1.04821965E-1,3.110493E-1,-2.0034961E-1,-1.5410084E-1,7.745723E-1,2.576397E-1,8.701577E-2,-6.7622864E-1,1.5028138E-1,-1.9480651E-2,-3.7394288E-1,2.7034077E-1,9.917897E-2,5.315392E-1,1.2271429E-1,-9.276031E-1,2.4905602E-2,5.8054876E-1,-9.429195E-2,1.3603269E-1,-2.093231E-1,2.062644E-1,-5.4028195E-1,8.914797E-2,-4.5455445E-2,7.903493E-2,-2.0440405E-2,-1.6605439E-2,3.857803E-2,-1.7310312E-2,-1.0704525E-1,1.0868897E-1,2.7331967E-2,-1.1604538E-2,3.0872589E-2,-1.3409818E-2,-6.996941E-2,1.10545985E-1,-1.6465008E-2,-6.575779E-2,-9.231064E-3],"categories":[],"categories_nodes":[],"categories_segments":[],"categories_sizes":[],"default_left":[0,0,0,0,0,0,0,0,0,0,0,0,0,0,0,0,0,0,0,0,0,0,0,0,0,0,0,0,0,0,0,0,0,0,0,0,0,0,0,0,0,0,0],"id":20,"left_children":[1,3,5,7,9,11,13,15,-1,17,19,21,23,25,-1,27,29,31,-1,33,-1,35,37,39,41,-1,-1,-1,-1,-1,-1,-1,-1,-1,-1,-1,-1,-1,-1,-1,-1,-1,-1],"loss_changes":[3.7694123E0,2.9136245E0,5.06657E0,1.2716188E0,2.5334833E0,3.2167184E0,4.1354942E-1,1.6770222E0,0E0,1.711421E0,4.879356E0,2.0543141E0,4.099071E0,1.8679368E0,0E0,3.0678945E0,2.5621798E0,3.7695408E-1,0E0,8.272693E-1,0E0,1.7042408E0,1.0605094E0,3.4938436E0,1.6411352E0,0E0,0E0,0E0,0E0,0E0,0E0,0E0,0E0,0E0,0E0,0E0,0E0,0E0,0E0,0E0,0E0,0E0,0E0],"parents":[2147483647,0,0,1,1,2,2,3,3,4,4,5,5,6,6,7,7,9,9,10,10,11,11,12,12,13,13,15,15,16,16,17,17,19,19,21,21,22,22,23,23,24,24],"right_children":[2,4,6,8,10,12,14,16,-1,18,20,22,24,26,-1,28,30,32,-1,34,-1,36,38,40,42,-1,-1,-1,-1,-1,-1,-1,-1,-1,-1,-1,-1,-1,-1,-1,-1,-1,-1],"split_conditions":[2E0,4E0,1.1E2,3E0,2.1E1,4E0,1.24E2,1.5E1,8.701577E-2,5.5E1,2E0,3.1E1,2E0,3E1,9.917897E-2,3.8E1,3.1E1,1E1,2.4905602E-2,3E0,-9.429195E-2,1.9E1,6.9E1,1.2E1,4.6E1,8.914797E-2,-4.5455445E-2,7.903493E-2,-2.0440405E-2,-1.6605439E-2,3.857803E-2,-1.7310312E-2,-1.0704525E-1,1.0868897E-1,2.7331967E-2,-1.1604538E-2,3.0872589E-2,-1.3409818E-2,-6.996941E-2,1.10545985E-1,-1.6465008E-2,-6.575779E-2,-9.231064E-3],"split_indices":[0,6,2,6,2,3,2,2,0,4,5,4,1,4,0,4,4,2,0,1,0,2,2,2,4,0,0,0,0,0,0,0,0,0,0,0,0,0,0,0,0,0,0],"split_type":[0,0,0,0,0,0,0,0,0,0,0,0,0,0,0,0,0,0,0,0,0,0,0,0,0,0,0,0,0,0,0,0,0,0,0,0,0,0,0,0,0,0,0],"sum_hessian":[1.7582594E2,6.266546E1,1.13160484E2,4.909103E1,1.3574428E1,1.0793677E2,5.2237186E0,4.614388E1,2.9471529E0,5.3647475E0,8.209681E0,6.761894E1,4.031782E1,2.248587E0,2.9751318E0,1.4258839E1,3.188504E1,4.216684E0,1.1480633E0,6.2275543E0,1.9821256E0,3.7326015E1,3.0292927E1,8.9297905E0,3.1388031E1,1.0871978E0,1.161389E0,1.049435E1,3.7644885E0,1.5375768E1,1.6509274E1,1.0233504E0,3.1933336E0,1.3933959E0,4.8341584E0,1.5308468E1,2.2017548E1,2.7368023E1,2.924905E0,2.029465E0,6.900326E0,2.4504036E1,6.8839936E0],"tree_param":{"num_deleted":"0","num_feature":"7","num_nodes":"43","size_leaf_vector":"1"}},{"base_weights":[4.4877245E-3,8.495949E-2,-2.3509355E-1,-6.4761055E-1,1.0511248E-1,1.0735788E-1,-3.5657886E-1,-5.906324E-3,-9.158802E-2,4.2940298E-1,5.8721777E-2,3.5748792E-1,-2.5393912E-1,-1.4304684E-1,-7.647931E-1,2.2981107E-1,8.305571E-1,7.632386E-2,-6.989841E-2,-2.5908902E-2,5.107489E-1,5.9993494E-2,-6.927481E-2,-2.53955E-1,3.004297E-1,-8.908831E-2,1.876886E-2,7.405805E-2,-3.5974034E-3,1.0041747E-1,1.0350244E-2,2.7604317E-2,5.8296975E-4,1.9159865E-3,9.7842E-2,-3.826658E-2,4.581445E-2,-3.3651665E-3,-6.567538E-2,8.563727E-2,-1.9228186E-2],"categories":[],"categories_nodes":[],"categories_segments":[],"categories_sizes":[],"default_left":[0,0,0,0,0,0,0,0,0,0,0,0,0,0,0,0,0,0,0,0,0,0,0,0,0,0,0,0,0,0,0,0,0,0,0,0,0,0,0,0,0],"id":21,"left_children":[1,3,5,7,9,11,13,-1,-1,15,17,19,21,23,25,27,29,31,-1,-1,33,35,-1,37,39,-1,-1,-1,-1,-1,-1,-1,-1,-1,-1,-1,-1,-1,-1,-1,-1],"loss_changes":[3.4051032E0,2.0193481E0,1.885962E0,5.2666426E-1,1.9228544E0,1.2112306E0,2.76833E0,0E0,0E0,1.0939941E0,1.5797062E0,8.638871E-1,8.2081133E-1,1.2029223E0,1.5012937E0,1.6690484E0,5.207789E-1,1.5857592E0,0E0,0E0,1.4841045E0,9.1869706E-1,0E0,1.651965E0,1.5453672E0,0E0,0E0,0E0,0E0,0E0,0E0,0E0,0E0,0E0,0E0,0E0,0E0,0E0,0E0,0E0,0E0],"parents":[2147483647,0,0,1,1,2,2,3,3,4,4,5,5,6,6,9,9,10,10,11,11,12,12,13,13,14,14,15,15,16,16,17,17,20,20,21,21,23,23,24,24],"right_children":[2,4,6,8,10,12,14,-1,-1,16,18,20,22,24,26,28,30,32,-1,-1,34,36,-1,38,40,-1,-1,-1,-1,-1,-1,-1,-1,-1,-1,-1,-1,-1,-1,-1,-1],"split_conditions":[4E0,6E0,3E0,2.5E1,2E0,4E0,4E0,-5.906324E-3,-9.158802E-2,3.7E1,6.7E1,1.6E1,4.2E1,3E0,6.9E1,1.9E1,7.8E1,1.4E1,-6.989841E-2,-2.5908902E-2,3.3E1,3.3E1,-6.927481E-2,4E0,2.6E1,-8.908831E-2,1.876886E-2,7.405805E-2,-3.5974034E-3,1.0041747E-1,1.0350244E-2,2.7604317E-2,5.8296975E-4,1.9159865E-3,9.7842E-2,-3.826658E-2,4.581445E-2,-3.3651665E-3,-6.567538E-2,8.563727E-2,-1.9228186E-2],"split_indices":[0,2,1,4,6,3,6,0,0,4,4,2,4,6,2,2,2,2,0,0,4,4,0,3,2,0,0,0,0,0,0,0,0,0,0,0,0,0,0,0,0],"split_type":[0,0,0,0,0,0,0,0,0,0,0,0,0,0,0,0,0,0,0,0,0,0,0,0,0,0,0,0,0,0,0,0,0,0,0,0,0,0,0,0,0],"sum_hessian":[1.7458156E2,1.3116917E2,4.3412384E1,2.6782665E0,1.284909E2,1.139831E1,3.2014076E1,1.2205997E0,1.4576669E0,1.5047355E1,1.1344356E2,6.74158E0,4.6567297E0,2.190582E1,1.0108254E1,1.1098323E1,3.9490316E0,1.11746864E2,1.6966952E0,1.2046604E0,5.5369196E0,3.2178776E0,1.438852E0,1.7865282E1,4.040539E0,8.983664E0,1.1245909E0,3.1871214E0,7.9112015E0,2.8801177E0,1.0689139E0,2.839219E1,8.335467E1,3.2069385E0,2.329981E0,1.5421867E0,1.6756908E0,1.2249299E1,5.6159825E0,1.5516634E0,2.4888752E0],"tree_param":{"num_deleted":"0","num_feature":"7","num_nodes":"41","size_leaf_vector":"1"}},{"base_weights":[3.6975204E-3,8.91173E-2,-1.8770723E-1,1.085509E-2,2.8782105E-1,-6.994486E-2,-3.7940454E-1,7.210007E-2,-4.587931E-1,8.831404E-2,1.9955885E-1,-3.3327156E-1,9.115823E-2,-5.7138246E-1,1.8947126E-1,3.5716423E-1,-5.524639E-2,-6.147521E-1,4.3704778E-2,6.242194E-2,7.389409E-1,-1.7977816E-1,-5.5170226E-1,4.7407216E-1,-4.0920846E-2,-1.7720558E-1,-7.973489E-1,8.053411E-2,-1.3225158E-1,4.9818944E-2,-9.930421E-3,-1.021804E-2,9.419089E-2,1.2908176E-2,-7.294815E-2,4.041101E-2,-1.8892523E-2,2.3782767E-2,1.152272E-1,-5.377499E-2,-4.7647796E-4,-7.609021E-2,-2.0084945E-2,8.1034094E-2,-1.6258817E-2,-4.3913607E-2,2.301777E-2,-4.9913287E-2,2.929925E-2,-8.671378E-2,-1.2134351E-2,-3.52664E-2,2.8982613E-2],"categories":[],"categories_nodes":[],"categories_segments":[],"categories_sizes":[],"default_left":[0,0,0,0,0,0,0,0,0,0,0,0,0,0,0,0,0,0,0,0,0,0,0,0,0,0,0,0,0,0,0,0,0,0,0,0,0,0,0,0,0,0,0,0,0,0,0,0,0,0,0,0,0],"id":22,"left_children":[1,3,5,7,9,11,13,15,17,-1,19,21,23,25,27,29,31,33,-1,35,37,39,41,43,45,47,49,-1,51,-1,-1,-1,-1,-1,-1,-1,-1,-1,-1,-1,-1,-1,-1,-1,-1,-1,-1,-1,-1,-1,-1,-1,-1],"loss_changes":[2.8703098E0,1.8840796E0,1.1965117E0,2.5672534E0,1.6235213E0,1.5061362E0,2.335183E0,2.8804653E0,1.7076824E0,0E0,2.2559187E0,3.5072458E-1,1.1506528E0,1.2388487E0,1.2747351E0,1.6245306E0,2.686017E0,8.7825775E-1,0E0,2.3011525E0,1.0135319E0,5.841131E-1,2.1817791E-1,1.3769138E0,1.995891E0,1.1954985E0,3.459463E-1,0E0,5.424162E-1,0E0,0E0,0E0,0E0,0E0,0E0,0E0,0E0,0E0,0E0,0E0,0E0,0E0,0E0,0E0,0E0,0E0,0E0,0E0,0E0,0E0,0E0,0E0,0E0],"parents":[2147483647,0,0,1,1,2,2,3,3,4,4,5,5,6,6,7,7,8,8,10,10,11,11,12,12,13,13,14,14,15,15,16,16,17,17,19,19,20,20,21,21,22,22,23,23,24,24,25,25,26,26,28,28],"right_children":[2,4,6,8,10,12,14,16,18,-1,20,22,24,26,28,30,32,34,-1,36,38,40,42,44,46,48,50,-1,52,-1,-1,-1,-1,-1,-1,-1,-1,-1,-1,-1,-1,-1,-1,-1,-1,-1,-1,-1,-1,-1,-1,-1,-1],"split_conditions":[3E0,4.1E1,4E0,3.5E1,4.4E1,1.9E1,2E0,3E0,4.2E1,8.831404E-2,4.9E1,3E0,2.4E1,3.2E1,1.3E1,3.5E1,3.3E1,2E0,4.3704778E-2,3E1,5E0,2.6E1,1.3E1,3.4E1,4.2E1,2.8E1,6.2E1,8.053411E-2,4.6E1,4.9818944E-2,-9.930421E-3,-1.021804E-2,9.419089E-2,1.2908176E-2,-7.294815E-2,4.041101E-2,-1.8892523E-2,2.3782767E-2,1.152272E-1,-5.377499E-2,-4.7647796E-4,-7.609021E-2,-2.0084945E-2,8.1034094E-2,-1.6258817E-2,-4.3913607E-2,2.301777E-2,-4.9913287E-2,2.929925E-2,-8.671378E-2,-1.2134351E-2,-3.52664E-2,2.8982613E-2],"split_indices":[0,2,3,2,2,2,5,3,4,0,4,6,2,4,2,4,2,1,0,4,3,4,2,4,2,4,4,0,4,0,0,0,0,0,0,0,0,0,0,0,0,0,0,0,0,0,0,0,0,0,0,0,0],"split_type":[0,0,0,0,0,0,0,0,0,0,0,0,0,0,0,0,0,0,0,0,0,0,0,0,0,0,0,0,0,0,0,0,0,0,0,0,0,0,0,0,0,0,0,0,0,0,0,0,0,0,0,0,0],"sum_hessian":[1.7353363E2,1.2035584E2,5.3177795E1,8.710354E1,3.3252304E1,3.3786896E1,1.9390898E1,7.780392E1,9.2996235E0,3.1306338E0,3.012167E1,1.2419026E1,2.136787E1,1.449491E1,4.895988E0,2.3467474E1,5.433644E1,8.187937E0,1.111686E0,2.4905275E1,5.2163925E0,8.364355E0,4.054672E0,4.816096E0,1.6551775E1,5.9317503E0,8.56316E0,1.1641867E0,3.7318013E0,1.7858667E1,5.608807E0,5.2751087E1,1.5853549E0,1.0774329E0,7.110504E0,1.029805E1,1.4607226E1,3.0699039E0,2.146489E0,2.0659819E0,6.298373E0,1.8079433E0,2.2467282E0,2.973019E0,1.8430771E0,6.453064E0,1.0098711E1,3.4845026E0,2.4472477E0,7.5055676E0,1.0575919E0,2.5596094E0,1.1721919E0],"tree_param":{"num_deleted":"0","num_feature":"7","num_nodes":"53","size_leaf_vector":"1"}},{"base_weights":[4.237308E-3,-2.1854982E-2,6.096219E-1,1.7232205E-1,-1.351246E-1,-2.0831728E-3,7.3349035E-1,2.6660746E-1,-1.665551E-1,-2.4763506E-2,-3.2323623E-1,9.508263E-2,1.26165915E-2,3.087493E-1,-3.0183765E-1,-5.9590715E-1,2.2914076E-1,1.1078707E-1,-1.9293188E-1,-4.8047435E-1,2.1808162E-1,1.1514654E-2,5.2617725E-2,-6.0400773E-2,1.2700285E-2,-8.008899E-2,2.4193525E-2,6.6232644E-2,-8.727896E-2,-1.1475953E-2,2.6258772E-2,-1.1756396E-2,-6.875966E-2,-5.5588555E-2,2.9303467E-2,1.1081358E-1,-3.1047557E-2],"categories":[],"categories_nodes":[],"categories_segments":[],"categories_sizes":[],"default_left":[0,0,0,0,0,0,0,0,0,0,0,0,0,0,0,0,0,0,0,0,0,0,0,0,0,0,0,0,0,0,0,0,0,0,0,0,0],"id":23,"left_children":[1,3,5,7,9,-1,11,13,15,17,19,-1,-1,21,23,25,27,29,31,33,35,-1,-1,-1,-1,-1,-1,-1,-1,-1,-1,-1,-1,-1,-1,-1,-1],"loss_changes":[2.7525089E0,3.7009974E0,5.775423E-1,2.0267735E0,2.196064E0,0E0,6.779642E-1,1.2651649E0,2.5354989E0,1.5713428E0,3.4390163E0,0E0,0E0,1.8774929E0,5.7978654E-1,1.4045386E0,4.4304333E0,1.3409033E0,1.0641313E0,1.951777E0,4.8157425E0,0E0,0E0,0E0,0E0,0E0,0E0,0E0,0E0,0E0,0E0,0E0,0E0,0E0,0E0,0E0,0E0],"parents":[2147483647,0,0,1,1,2,2,3,3,4,4,6,6,7,7,8,8,9,9,10,10,13,13,14,14,15,15,16,16,17,17,18,18,19,19,20,20],"right_children":[2,4,6,8,10,-1,12,14,16,18,20,-1,-1,22,24,26,28,30,32,34,36,-1,-1,-1,-1,-1,-1,-1,-1,-1,-1,-1,-1,-1,-1,-1,-1],"split_conditions":[1.1E2,2E0,2E0,4E0,4E0,-2.0831728E-3,3E0,5.5E1,2.2E1,3.1E1,2E0,9.508263E-2,1.26165915E-2,3.1E1,2.5E1,5.5E1,2E0,1.9E1,6.9E1,5.7E1,1.3E1,1.1514654E-2,5.2617725E-2,-6.0400773E-2,1.2700285E-2,-8.008899E-2,2.4193525E-2,6.6232644E-2,-8.727896E-2,-1.1475953E-2,2.6258772E-2,-1.1756396E-2,-6.875966E-2,-5.5588555E-2,2.9303467E-2,1.1081358E-1,-3.1047557E-2],"split_indices":[2,0,3,6,3,0,6,4,2,4,5,0,0,4,2,4,5,2,2,4,2,0,0,0,0,0,0,0,0,0,0,0,0,0,0,0,0],"split_type":[0,0,0,0,0,0,0,0,0,0,0,0,0,0,0,0,0,0,0,0,0,0,0,0,0,0,0,0,0,0,0,0,0,0,0,0,0],"sum_hessian":[1.7241151E2,1.6621162E2,6.199881E0,6.1043682E1,1.05167946E2,1.1546879E0,5.045193E0,4.7923298E1,1.3120384E1,6.699503E1,3.8172916E1,3.299015E0,1.7461783E0,4.5041023E1,2.8822734E0,6.049916E0,7.0704684E0,3.72839E1,2.9711134E1,2.9667665E1,8.505251E0,2.4635025E1,2.0405996E1,1.4512353E0,1.4310381E0,4.8961506E0,1.1537653E0,5.361658E0,1.7088102E0,1.5096867E1,2.2187033E1,2.6856846E1,2.8542886E0,2.7288584E1,2.3790817E0,2.7603984E0,5.7448525E0],"tree_param":{"num_deleted":"0","num_feature":"7","num_nodes":"37","size_leaf_vector":"1"}},{"base_weights":[3.8030914E-3,-2.0500135E-2,5.728708E-1,1.5440363E-1,-1.230103E-1,-4.637129E-3,6.95114E-1,2.4033603E-1,-1.5831052E-1,1.1766466E-1,-1.9519275E-1,2.2698024E-1,9.045838E-2,1.901017E-1,7.640136E-2,-6.099191E-1,1.6953361E-1,9.2203903E-1,-4.599213E-2,-6.556516E-2,-4.2935407E-1,8.276017E-2,-4.4158664E-2,4.435189E-2,6.471885E-3,-8.556575E-2,2.2722682E-2,5.5451274E-2,-8.628628E-2,1.0960434E-1,2.153049E-2,-1.4607722E-2,8.980944E-2,7.2762775E-3,-2.5139457E-2,3.8705543E-2,-4.8317384E-2],"categories":[],"categories_nodes":[],"categories_segments":[],"categories_sizes":[],"default_left":[0,0,0,0,0,0,0,0,0,0,0,0,0,0,0,0,0,0,0,0,0,0,0,0,0,0,0,0,0,0,0,0,0,0,0,0,0],"id":24,"left_children":[1,3,5,7,9,-1,11,13,15,17,19,21,-1,23,-1,25,27,29,31,33,35,-1,-1,-1,-1,-1,-1,-1,-1,-1,-1,-1,-1,-1,-1,-1,-1],"loss_changes":[2.3940187E0,2.9981854E0,5.689049E-1,1.6999316E0,1.8526134E0,0E0,3.8140368E-1,1.1414113E0,2.1664243E0,3.3233004E0,2.442509E0,1.6442623E0,0E0,1.4316376E0,0E0,1.4448369E0,3.9981825E0,2.8801584E-1,2.1780071E0,1.395391E0,1.4534736E0,0E0,0E0,0E0,0E0,0E0,0E0,0E0,0E0,0E0,0E0,0E0,0E0,0E0,0E0,0E0,0E0],"parents":[2147483647,0,0,1,1,2,2,3,3,4,4,6,6,7,7,8,8,9,9,10,10,11,11,13,13,15,15,16,16,17,17,18,18,19,19,20,20],"right_children":[2,4,6,8,10,-1,12,14,16,18,20,22,-1,24,-1,26,28,30,32,34,36,-1,-1,-1,-1,-1,-1,-1,-1,-1,-1,-1,-1,-1,-1,-1,-1],"split_conditions":[1.1E2,2E0,2E0,4E0,3E0,-4.637129E-3,1.24E2,3E0,2.1E1,2.6E1,4E0,3E1,9.045838E-2,1.5E1,7.640136E-2,5.5E1,2E0,3E0,5.6E1,3.1E1,2E0,8.276017E-2,-4.4158664E-2,4.435189E-2,6.471885E-3,-8.556575E-2,2.2722682E-2,5.5451274E-2,-8.628628E-2,1.0960434E-1,2.153049E-2,-1.4607722E-2,8.980944E-2,7.2762775E-3,-2.5139457E-2,3.8705543E-2,-4.8317384E-2],"split_indices":[2,0,0,6,1,0,2,6,2,4,3,4,0,2,0,4,5,0,4,4,6,0,0,0,0,0,0,0,0,0,0,0,0,0,0,0,0],"split_type":[0,0,0,0,0,0,0,0,0,0,0,0,0,0,0,0,0,0,0,0,0,0,0,0,0,0,0,0,0,0,0,0,0,0,0,0,0],"sum_hessian":[1.712519E2,1.6516228E2,6.0896244E0,6.0843807E1,1.04318474E2,1.106276E0,4.9833484E0,4.790985E1,1.2933955E1,2.3922981E1,8.039549E1,2.1846266E0,2.7987218E0,4.4960026E1,2.949826E0,5.078238E0,7.8557167E0,3.2610273E0,2.0661953E1,5.2572357E1,2.7823135E1,1.0254855E0,1.1591412E0,1.404192E1,3.0918104E1,3.908741E0,1.169497E0,6.0591545E0,1.7965622E0,2.174732E0,1.0862952E0,1.9445732E1,1.2162217E0,3.0486914E1,2.2085443E1,1.3378066E0,2.6485329E1],"tree_param":{"num_deleted":"0","num_feature":"7","num_nodes":"37","size_leaf_vector":"1"}},{"base_weights":[5.2411165E-3,-1.7504064E-2,5.40642E-1,1.3987812E-1,-1.1025303E-1,-4.0767333E-3,6.604514E-1,8.3349094E-2,5.741616E-1,1.1432537E-1,-1.7829263E-1,8.793942E-2,1.0070758E-2,2.2170545E-1,-1.4935039E-1,1.2278272E-1,8.120595E-2,8.599676E-1,-3.8132187E-2,-5.9641033E-2,-3.9726484E-1,1.2348817E-3,8.67955E-2,-7.7333026E-2,6.436389E-3,-5.570818E-2,4.8283868E-2,1.02316715E-1,2.0307476E-2,-1.3283208E-2,8.3341904E-2,-2.5304968E-2,6.4571286E-3,-5.4390695E-2,-5.251711E-3],"categories":[],"categories_nodes":[],"categories_segments":[],"categories_sizes":[],"default_left":[0,0,0,0,0,0,0,0,0,0,0,0,0,0,0,0,0,0,0,0,0,0,0,0,0,0,0,0,0,0,0,0,0,0,0],"id":25,"left_children":[1,3,5,7,9,-1,11,13,15,17,19,-1,-1,21,23,-1,25,27,29,31,33,-1,-1,-1,-1,-1,-1,-1,-1,-1,-1,-1,-1,-1,-1],"loss_changes":[2.0911279E0,2.4230871E0,5.1434946E-1,1.4644382E0,1.6147304E0,0E0,6.295848E-1,1.8256392E0,2.1317549E0,2.860051E0,2.067029E0,0E0,0E0,4.767789E0,2.8978937E0,0E0,1.5555557E0,2.4938202E-1,1.8939904E0,1.298413E0,1.3921704E0,0E0,0E0,0E0,0E0,0E0,0E0,0E0,0E0,0E0,0E0,0E0,0E0,0E0,0E0],"parents":[2147483647,0,0,1,1,2,2,3,3,4,4,6,6,7,7,8,8,9,9,10,10,13,13,14,14,16,16,17,17,18,18,19,19,20,20],"right_children":[2,4,6,8,10,-1,12,14,16,18,20,-1,-1,22,24,-1,26,28,30,32,34,-1,-1,-1,-1,-1,-1,-1,-1,-1,-1,-1,-1,-1,-1],"split_conditions":[1.1E2,2E0,2E0,6.7E1,3E0,-4.0767333E-3,3E0,3.6E1,7.4E1,2.6E1,4E0,8.793942E-2,1.0070758E-2,3.1E1,4E1,1.2278272E-1,4E0,3E0,5.6E1,1.9E1,4.2E1,1.2348817E-3,8.67955E-2,-7.7333026E-2,6.436389E-3,-5.570818E-2,4.8283868E-2,1.02316715E-1,2.0307476E-2,-1.3283208E-2,8.3341904E-2,-2.5304968E-2,6.4571286E-3,-5.4390695E-2,-5.251711E-3],"split_indices":[2,0,3,2,1,0,6,4,2,4,3,0,0,4,4,0,3,0,4,2,4,0,0,0,0,0,0,0,0,0,0,0,0,0,0],"split_type":[0,0,0,0,0,0,0,0,0,0,0,0,0,0,0,0,0,0,0,0,0,0,0,0,0,0,0,0,0,0,0,0,0,0,0],"sum_hessian":[1.6993942E2,1.6394206E2,5.9973655E0,6.060152E1,1.03340546E2,1.1374233E0,4.859942E0,5.4676422E1,5.925098E0,2.3870588E1,7.9469955E1,3.082976E0,1.7769657E0,3.431874E1,2.0357681E1,1.9064176E0,4.0186806E0,3.264383E0,2.0606205E1,5.2366936E1,2.7103018E1,2.6691097E1,7.6276417E0,4.5256515E0,1.583203E1,1.4025923E0,2.6160882E0,2.1681406E0,1.0962424E0,1.9351162E1,1.2550427E0,2.0073553E1,3.2293385E1,1.8609552E1,8.493466E0],"tree_param":{"num_deleted":"0","num_feature":"7","num_nodes":"35","size_leaf_vector":"1"}},{"base_weights":[6.6570006E-3,-1.44629E-2,5.0850415E-1,1.2829322E-1,-9.904772E-2,-7.049018E-3,6.2900823E-1,1.6180739E-1,-5.174708E-1,1.108502E-1,-1.631006E-1,1.9755105E-2,8.253474E-2,1.1434159E-1,6.424768E-1,-1.1822653E-2,-6.8788074E-2,3.645108E-1,-2.9714957E-1,-5.4248363E-2,-3.6743867E-1,2.0166935E-2,-2.399051E-2,1.9478312E-2,1.0208823E-1,9.326542E-2,1.9734284E-2,-7.0249386E-2,9.922522E-3,7.2265603E-3,-2.2685692E-2,-4.6814036E-2,9.521744E-3],"categories":[],"categories_nodes":[],"categories_segments":[],"categories_sizes":[],"default_left":[0,0,0,0,0,0,0,0,0,0,0,0,0,0,0,0,0,0,0,0,0,0,0,0,0,0,0,0,0,0,0,0,0],"id":26,"left_children":[1,3,5,7,9,-1,11,13,15,17,19,-1,-1,21,23,-1,-1,25,27,29,31,-1,-1,-1,-1,-1,-1,-1,-1,-1,-1,-1,-1],"loss_changes":[1.8084134E0,1.9934623E0,5.250732E-1,1.4140321E0,1.4105324E0,0E0,3.286152E-1,1.2771368E0,1.4121044E-1,2.676113E0,1.754112E0,0E0,0E0,1.7527187E0,6.657798E-1,0E0,0E0,1.3116612E0,1.6864731E0,1.1783841E0,1.3280282E0,0E0,0E0,0E0,0E0,0E0,0E0,0E0,0E0,0E0,0E0,0E0,0E0],"parents":[2147483647,0,0,1,1,2,2,3,3,4,4,6,6,7,7,8,8,9,9,10,10,13,13,14,14,17,17,18,18,19,19,20,20],"right_children":[2,4,6,8,10,-1,12,14,16,18,20,-1,-1,22,24,-1,-1,26,28,30,32,-1,-1,-1,-1,-1,-1,-1,-1,-1,-1,-1,-1],"split_conditions":[1.1E2,2E0,2E0,6.1E1,3E0,-7.049018E-3,1.24E2,5.3E1,4E0,2.9E1,4E0,1.9755105E-2,8.253474E-2,4E0,3E0,-1.1822653E-2,-6.8788074E-2,2.6E1,4E0,3.1E1,2E0,2.0166935E-2,-2.399051E-2,1.9478312E-2,1.0208823E-1,9.326542E-2,1.9734284E-2,-7.0249386E-2,9.922522E-3,7.2265603E-3,-2.2685692E-2,-4.6814036E-2,9.521744E-3],"split_indices":[2,0,0,4,1,0,2,4,6,2,3,0,0,6,6,0,0,4,0,4,5,0,0,0,0,0,0,0,0,0,0,0,0],"split_type":[0,0,0,0,0,0,0,0,0,0,0,0,0,0,0,0,0,0,0,0,0,0,0,0,0,0,0,0,0,0,0,0,0],"sum_hessian":[1.6892786E2,1.630377E2,5.8901525E0,6.0467804E1,1.0256991E2,1.0862092E0,4.803943E0,5.8196903E1,2.2708983E0,2.3811213E1,7.87587E1,2.1298182E0,2.674125E0,5.409312E1,4.1037817E0,1.1860179E0,1.0848806E0,1.474844E1,9.062773E0,5.221102E1,2.6547672E1,4.374095E1,1.0352171E1,2.5736403E0,1.5301416E0,2.3119192E0,1.2436521E1,4.0988617E0,4.9639115E0,3.0463812E1,2.1747211E1,2.179247E1,4.755201E0],"tree_param":{"num_deleted":"0","num_feature":"7","num_nodes":"33","size_leaf_vector":"1"}},{"base_weights":[6.668204E-3,6.2458754E-2,-1.6810979E-1,-6.59469E-1,8.230939E-2,-4.21342E-2,-4.30413E-1,-9.508067E-3,-8.996057E-2,2.838291E-1,1.4562337E-2,-1.3188608E-1,3.2660514E-1,2.5743788E-1,-7.115175E-1,-1.6363317E-1,5.770719E-1,-9.28389E-2,2.0895636E-1,6.2106427E-2,-2.0886305E-1,8.4219E-2,-1.2633339E-1,6.1851557E-2,-1.4087071E-2,-8.476792E-2,1.8589092E-2,4.525315E-2,-3.3599127E-2,1.2550324E-1,5.6477776E-3,-1.2482293E-3,-4.768742E-2,9.1398336E-2,1.0351748E-2,-1.1161842E-2,-8.8062555E-2,2.6793454E-2,-6.1364885E-2],"categories":[],"categories_nodes":[],"categories_segments":[],"categories_sizes":[],"default_left":[0,0,0,0,0,0,0,0,0,0,0,0,0,0,0,0,0,0,0,0,0,0,0,0,0,0,0,0,0,0,0,0,0,0,0,0,0,0,0],"id":27,"left_children":[1,3,5,7,9,11,13,-1,-1,15,17,19,21,23,25,27,29,31,33,-1,35,-1,37,-1,-1,-1,-1,-1,-1,-1,-1,-1,-1,-1,-1,-1,-1,-1,-1],"loss_changes":[1.6592621E0,1.9015443E0,1.3427678E0,3.9702082E-1,1.7207317E0,1.00055E0,2.745889E0,0E0,0E0,4.258317E0,2.0155294E0,1.5195956E0,1.4961352E0,7.457372E-1,1.3397136E0,1.569001E0,6.773058E0,1.9158792E0,2.457553E0,0E0,1.371798E0,0E0,9.401636E-1,0E0,0E0,0E0,0E0,0E0,0E0,0E0,0E0,0E0,0E0,0E0,0E0,0E0,0E0,0E0,0E0],"parents":[2147483647,0,0,1,1,2,2,3,3,4,4,5,5,6,6,9,9,10,10,11,11,12,12,13,13,14,14,15,15,16,16,17,17,18,18,20,20,22,22],"right_children":[2,4,6,8,10,12,14,-1,-1,16,18,20,22,24,26,28,30,32,34,-1,36,-1,38,-1,-1,-1,-1,-1,-1,-1,-1,-1,-1,-1,-1,-1,-1,-1,-1],"split_conditions":[4E0,6E0,4E0,2.5E1,1.4E1,3E0,3E0,-9.508067E-3,-8.996057E-2,2.8E1,4.1E1,2E0,2.7E1,2.9E1,6.9E1,3E0,3.8E1,3.5E1,4.4E1,6.2106427E-2,6.9E1,8.4219E-2,2.9E1,6.1851557E-2,-1.4087071E-2,-8.476792E-2,1.8589092E-2,4.525315E-2,-3.3599127E-2,1.2550324E-1,5.6477776E-3,-1.2482293E-3,-4.768742E-2,9.1398336E-2,1.0351748E-2,-1.1161842E-2,-8.8062555E-2,2.6793454E-2,-6.1364885E-2],"split_indices":[0,2,6,4,2,6,1,0,0,4,2,3,2,2,2,1,4,2,2,0,2,0,4,0,0,0,0,0,0,0,0,0,0,0,0,0,0,0,0],"split_type":[0,0,0,0,0,0,0,0,0,0,0,0,0,0,0,0,0,0,0,0,0,0,0,0,0,0,0,0,0,0,0,0,0,0,0,0,0,0,0],"sum_hessian":[1.6808716E2,1.27902336E2,4.0184822E1,2.5605009E0,1.25341835E2,2.7931076E1,1.2253744E1,1.1809299E0,1.3795711E0,3.0733305E1,9.460853E1,2.2980024E1,4.951051E0,3.5793695E0,8.674375E0,1.23422E1,1.8391104E1,6.1276268E1,3.333226E1,1.4758466E0,2.1504179E1,1.9135009E0,3.0375502E0,1.5874487E0,1.991921E0,7.5797334E0,1.0946411E0,2.3424873E0,9.999713E0,7.375436E0,1.1015669E1,5.15271E1,9.74917E0,3.3387856E0,2.9993475E1,1.9803564E1,1.7006148E0,1.9279244E0,1.1096258E0],"tree_param":{"num_deleted":"0","num_feature":"7","num_nodes":"39","size_leaf_vector":"1"}},{"base_weights":[6.281004E-3,2.7931052E-1,-2.6916068E-2,3.864402E-1,-2.4246864E-1,-4.560387E-2,4.914606E-1,2.1201013E-1,8.608784E-1,-8.007456E-2,4.2137127E-2,1.14676036E-1,-9.7144194E-2,8.5913755E-2,-2.5130136E-2,-1.12366654E-1,5.201526E-1,2.6721468E-2,1.0215266E-1,-3.530269E-1,2.2897993E-1,-4.2893034E-1,-3.707453E-2,-2.9573709E-2,4.0047366E-2,6.876679E-2,-1.7744191E-2,1.2314464E-2,-6.240077E-2,-6.840843E-2,2.9923433E-2,2.5920928E-2,-5.546958E-2,3.0787988E-2,-1.2033018E-2],"categories":[],"categories_nodes":[],"categories_segments":[],"categories_sizes":[],"default_left":[0,0,0,0,0,0,0,0,0,0,0,0,0,0,0,0,0,0,0,0,0,0,0,0,0,0,0,0,0,0,0,0,0,0,0],"id":28,"left_children":[1,3,5,7,9,11,13,15,17,-1,-1,19,21,-1,-1,23,25,-1,-1,27,29,31,33,-1,-1,-1,-1,-1,-1,-1,-1,-1,-1,-1,-1],"loss_changes":[1.5332818E0,1.118686E0,1.4851948E0,1.1083786E0,1.7227297E0,1.2226849E0,1.6739992E0,1.331085E0,9.578943E-2,0E0,0E0,2.0131152E0,2.2066493E0,0E0,0E0,7.790694E-1,9.05802E-1,0E0,0E0,1.0435629E0,2.1067946E0,1.6150603E0,2.7802093E0,0E0,0E0,0E0,0E0,0E0,0E0,0E0,0E0,0E0,0E0,0E0,0E0],"parents":[2147483647,0,0,1,1,2,2,3,3,4,4,5,5,6,6,7,7,8,8,11,11,12,12,15,15,16,16,19,19,20,20,21,21,22,22],"right_children":[2,4,6,8,10,12,14,16,18,-1,-1,20,22,-1,-1,24,26,-1,-1,28,30,32,34,-1,-1,-1,-1,-1,-1,-1,-1,-1,-1,-1,-1],"split_conditions":[2E0,7.8E1,1.1E2,4.7E1,3E0,2.6E1,1.38E2,3E0,3.5E1,-8.007456E-2,4.2137127E-2,1.2E1,2.8E1,8.5913755E-2,-2.5130136E-2,3.6E1,3.9E1,2.6721468E-2,1.0215266E-1,8E0,2E0,2E0,1.3E1,-2.9573709E-2,4.0047366E-2,6.876679E-2,-1.7744191E-2,1.2314464E-2,-6.240077E-2,-6.840843E-2,2.9923433E-2,2.5920928E-2,-5.546958E-2,3.0787988E-2,-1.2033018E-2],"split_indices":[6,2,2,2,3,4,2,1,4,0,0,2,4,0,0,2,2,0,0,2,3,1,2,0,0,0,0,0,0,0,0,0,0,0,0],"split_type":[0,0,0,0,0,0,0,0,0,0,0,0,0,0,0,0,0,0,0,0,0,0,0,0,0,0,0,0,0,0,0,0,0,0,0],"sum_hessian":[1.6733636E2,1.7336718E1,1.4999965E2,1.4598741E1,2.7379766E0,1.4566052E2,4.3391275E0,1.1732194E1,2.8665462E0,1.3752141E0,1.3627625E0,3.514421E1,1.1051631E2,2.7975996E0,1.5415281E0,6.0250554E0,5.707139E0,1.1777201E0,1.6888261E0,6.4920144E0,2.8652195E1,1.6000317E1,9.4516E1,4.7499905E0,1.2750647E0,4.613514E0,1.0936252E0,2.5524213E0,3.9395933E0,1.4228482E0,2.7229347E1,2.3084295E0,1.3691887E1,1.7851908E1,7.6664085E1],"tree_param":{"num_deleted":"0","num_feature":"7","num_nodes":"35","size_leaf_vector":"1"}},{"base_weights":[6.291888E-3,5.643022E-2,-1.5305589E-1,-6.3149357E-1,7.530637E-2,-4.777971E-1,-4.9310215E-2,-6.3183727E-3,-8.502143E-2,3.8585943E-1,4.0396035E-2,-1.2809427E-1,-7.002187E-1,4.83704E-1,-1.2062637E-1,6.4820397E-1,-1.1443413E-1,-2.718475E-2,1.8553093E-1,-4.024949E-2,1.4434679E-1,-8.7085925E-2,-2.6784027E-3,1.220955E-1,-2.2012182E-2,2.1612671E-1,-2.9183552E-1,2.896548E-3,1.4048444E-1,-3.6598627E-2,2.2901285E-2,3.8347535E-3,-5.9006E-2,4.185761E-3,5.2095074E-2,-9.055741E-3,2.9449243E-2,4.6882853E-2,-2.6483834E-2,-1.12816915E-2,-6.359229E-2],"categories":[],"categories_nodes":[],"categories_segments":[],"categories_sizes":[],"default_left":[0,0,0,0,0,0,0,0,0,0,0,0,0,0,0,0,0,0,0,0,0,0,0,0,0,0,0,0,0,0,0,0,0,0,0,0,0,0,0,0,0],"id":29,"left_children":[1,3,5,7,9,11,13,-1,-1,15,17,19,21,23,25,27,29,31,33,-1,35,-1,-1,-1,-1,37,39,-1,-1,-1,-1,-1,-1,-1,-1,-1,-1,-1,-1,-1,-1],"loss_changes":[1.3496573E0,1.7149643E0,1.3389628E0,3.8578975E-1,1.3490452E0,6.6298676E-1,1.2658342E0,0E0,0E0,1.7282848E0,1.1258246E0,4.3083566E-1,6.3065195E-1,2.3174672E0,1.7245405E0,3.9032664E0,5.317954E-1,2.930645E0,1.7338544E0,0E0,1.4086957E-1,0E0,0E0,0E0,0E0,1.3745041E0,1.1312594E0,0E0,0E0,0E0,0E0,0E0,0E0,0E0,0E0,0E0,0E0,0E0,0E0,0E0,0E0],"parents":[2147483647,0,0,1,1,2,2,3,3,4,4,5,5,6,6,9,9,10,10,11,11,12,12,13,13,14,14,15,15,16,16,17,17,18,18,20,20,25,25,26,26],"right_children":[2,4,6,8,10,12,14,-1,-1,16,18,20,22,24,26,28,30,32,34,-1,36,-1,-1,-1,-1,38,40,-1,-1,-1,-1,-1,-1,-1,-1,-1,-1,-1,-1,-1,-1],"split_conditions":[4E0,6E0,1.5E1,3E0,1E1,3E1,2.4E1,-6.3183727E-3,-8.502143E-2,3.8E1,4E1,2.6E1,2E0,2.2E1,3E0,2.8E1,4.5E1,3.5E1,4.2E1,-4.024949E-2,1.2E1,-8.7085925E-2,-2.6784027E-3,1.220955E-1,-2.2012182E-2,4E0,4E0,2.896548E-3,1.4048444E-1,-3.6598627E-2,2.2901285E-2,3.8347535E-3,-5.9006E-2,4.185761E-3,5.2095074E-2,-9.055741E-3,2.9449243E-2,4.6882853E-2,-2.6483834E-2,-1.12816915E-2,-6.359229E-2],"split_indices":[0,2,2,3,2,4,4,0,0,4,2,4,5,2,1,4,4,2,4,0,2,0,0,0,0,3,6,0,0,0,0,0,0,0,0,0,0,0,0,0,0],"split_type":[0,0,0,0,0,0,0,0,0,0,0,0,0,0,0,0,0,0,0,0,0,0,0,0,0,0,0,0,0,0,0,0,0,0,0,0,0,0,0,0,0],"sum_hessian":[1.6684929E2,1.2740692E2,3.9442364E1,2.5358438E0,1.2487107E2,8.676867E0,3.07655E1,1.0629144E0,1.4729295E0,1.16027975E1,1.1326828E2,3.9859133E0,4.690953E0,2.948204E0,2.7817295E1,7.4175344E0,4.185263E0,7.78369E1,3.5431377E1,1.7479879E0,2.2379255E0,3.5087228E0,1.1822301E0,1.0810616E0,1.8671423E0,9.287418E0,1.8529877E1,4.6501274E0,2.767407E0,2.3779476E0,1.8073156E0,7.055452E1,7.2823796E0,2.5593485E1,9.837891E0,1.0274072E0,1.2105184E0,6.1050324E0,3.1823857E0,1.3061982E1,5.467894E0],"tree_param":{"num_deleted":"0","num_feature":"7","num_nodes":"41","size_leaf_vector":"1"}},{"base_weights":[5.315995E-3,2.5907707E-1,-2.5380237E-2,3.6445758E-1,-2.4803929E-1,-4.2612363E-2,4.5577875E-1,1.1288025E-1,6.41806E-1,-7.710973E-2,3.866456E-2,-2.3688642E-2,-4.4706014E-1,8.085483E-2,-2.4505323E-2,5.065201E-1,-5.5552715E-1,2.028575E-2,1.1824178E-1,-3.7345156E-2,7.362675E-2,-5.4727778E-2,-8.4933996E-2,-3.483798E-2,7.4176304E-2,-1.062423E-1,1.950953E-2,-2.0672334E-2,3.730004E-2,1.3267039E-2,-1.0380879E-2,-5.2389707E-2,3.200172E-2],"categories":[],"categories_nodes":[],"categories_segments":[],"categories_sizes":[],"default_left":[0,0,0,0,0,0,0,0,0,0,0,0,0,0,0,0,0,0,0,0,0,0,0,0,0,0,0,0,0,0,0,0,0],"id":30,"left_children":[1,3,5,7,9,11,13,15,17,-1,-1,19,21,-1,-1,23,25,27,-1,29,-1,31,-1,-1,-1,-1,-1,-1,-1,-1,-1,-1,-1],"loss_changes":[1.30827E0,1.0588524E0,1.2630187E0,1.0027239E0,1.5307618E0,1.1046636E0,1.5013874E0,2.7265925E0,2.3669293E0,0E0,0E0,1.4831424E0,9.7263694E-1,0E0,0E0,1.5398729E0,1.6993406E0,4.2362034E-1,0E0,1.5814428E0,0E0,9.3033683E-1,0E0,0E0,0E0,0E0,0E0,0E0,0E0,0E0,0E0,0E0,0E0],"parents":[2147483647,0,0,1,1,2,2,3,3,4,4,5,5,6,6,7,7,8,8,11,11,12,12,15,15,16,16,17,17,19,19,21,21],"right_children":[2,4,6,8,10,12,14,16,18,-1,-1,20,22,-1,-1,24,26,28,-1,30,-1,32,-1,-1,-1,-1,-1,-1,-1,-1,-1,-1,-1],"split_conditions":[2E0,7.8E1,1.1E2,3.4E1,3E0,6.2E1,1.38E2,3E1,3.6E1,-7.710973E-2,3.866456E-2,6E1,4E0,8.085483E-2,-2.4505323E-2,2.4E1,1E0,3E0,1.1824178E-1,3E0,7.362675E-2,6.5E1,-8.4933996E-2,-3.483798E-2,7.4176304E-2,-1.062423E-1,1.950953E-2,-2.0672334E-2,3.730004E-2,1.3267039E-2,-1.0380879E-2,-5.2389707E-2,3.200172E-2],"split_indices":[6,2,2,4,3,4,2,4,2,0,0,4,6,0,0,4,6,1,0,3,0,4,0,0,0,0,0,0,0,0,0,0,0],"split_type":[0,0,0,0,0,0,0,0,0,0,0,0,0,0,0,0,0,0,0,0,0,0,0,0,0,0,0,0,0,0,0,0,0],"sum_hessian":[1.6610869E2,1.712218E1,1.489865E2,1.4409211E1,2.7129695E0,1.4471515E2,4.27136E0,8.293415E0,6.1157966E0,1.3694476E0,1.343522E0,1.3925797E2,5.4571753E0,2.7389758E0,1.532384E0,5.3719525E0,2.9214625E0,3.32765E0,2.7881463E0,1.3773373E2,1.524235E0,3.3378787E0,2.1192968E0,1.0554368E0,4.316516E0,1.4958946E0,1.4255679E0,2.276433E0,1.0512171E0,3.843077E1,9.9302956E1,1.3054658E0,2.032413E0],"tree_param":{"num_deleted":"0","num_feature":"7","num_nodes":"33","size_leaf_vector":"1"}},{"base_weights":[5.257696E-3,5.1252846E-2,-1.4281261E-1,-6.108759E-1,6.917008E-2,-4.5119333E-1,-4.610174E-2,-8.606795E-3,-8.379989E-2,2.416002E-1,1.043621E-2,-1.1932157E-1,-6.7142326E-1,4.5486492E-1,-1.149199E-1,-1.3668841E-1,4.8497033E-1,-3.4600517E-1,6.846253E-2,-3.8451545E-2,1.3760448E-1,-8.474118E-2,-2.086862E-3,1.2641941E-1,-2.4812657E-2,1.8857747E-1,-2.7213675E-1,4.1213803E-2,-2.9157832E-2,1.0590456E-1,4.030953E-3,2.0810908E-3,-5.067088E-2,-1.1228112E-3,3.6531936E-2,-8.7612625E-3,2.8006861E-2,4.1265734E-2,-2.4790121E-2,-1.0387955E-2,-6.088927E-2],"categories":[],"categories_nodes":[],"categories_segments":[],"categories_sizes":[],"default_left":[0,0,0,0,0,0,0,0,0,0,0,0,0,0,0,0,0,0,0,0,0,0,0,0,0,0,0,0,0,0,0,0,0,0,0,0,0,0,0,0,0],"id":31,"left_children":[1,3,5,7,9,11,13,-1,-1,15,17,19,21,23,25,27,29,31,33,-1,35,-1,-1,-1,-1,37,39,-1,-1,-1,-1,-1,-1,-1,-1,-1,-1,-1,-1,-1,-1],"loss_changes":[1.1416916E0,1.5586625E0,1.1644154E0,3.414172E-1,1.2669768E0,6.049986E-1,1.1336641E0,0E0,0E0,2.9943044E0,1.9792159E0,3.905399E-1,6.026845E-1,2.583884E0,1.4053102E0,1.2449025E0,4.9537187E0,8.00578E-1,1.9473972E0,0E0,1.2892157E-1,0E0,0E0,0E0,0E0,1.1071692E0,1.0191312E0,0E0,0E0,0E0,0E0,0E0,0E0,0E0,0E0,0E0,0E0,0E0,0E0,0E0,0E0],"parents":[2147483647,0,0,1,1,2,2,3,3,4,4,5,5,6,6,9,9,10,10,11,11,12,12,13,13,14,14,15,15,16,16,17,17,18,18,20,20,25,25,26,26],"right_children":[2,4,6,8,10,12,14,-1,-1,16,18,20,22,24,26,28,30,32,34,-1,36,-1,-1,-1,-1,38,40,-1,-1,-1,-1,-1,-1,-1,-1,-1,-1,-1,-1,-1,-1],"split_conditions":[4E0,6E0,1.5E1,2.5E1,1.4E1,3E1,2.4E1,-8.606795E-3,-8.379989E-2,2.8E1,1.8E1,2.6E1,2E0,2.1E1,3E0,3E0,3.8E1,2.6E1,5E0,-3.8451545E-2,1.2E1,-8.474118E-2,-2.086862E-3,1.2641941E-1,-2.4812657E-2,4E0,4E0,4.1213803E-2,-2.9157832E-2,1.0590456E-1,4.030953E-3,2.0810908E-3,-5.067088E-2,-1.1228112E-3,3.6531936E-2,-8.7612625E-3,2.8006861E-2,4.1265734E-2,-2.4790121E-2,-1.0387955E-2,-6.088927E-2],"split_indices":[0,2,2,4,2,4,4,0,0,4,2,4,5,2,1,1,4,4,3,0,2,0,0,0,0,3,6,0,0,0,0,0,0,0,0,0,0,0,0,0,0],"split_type":[0,0,0,0,0,0,0,0,0,0,0,0,0,0,0,0,0,0,0,0,0,0,0,0,0,0,0,0,0,0,0,0,0,0,0,0,0,0,0,0,0],"sum_hessian":[1.6556183E2,1.2682117E2,3.8740658E1,2.4694295E0,1.2435174E2,8.373811E0,3.0366848E1,1.1624143E0,1.3070153E0,3.0804073E1,9.354766E1,3.955277E0,4.418534E0,2.990153E0,2.7376696E1,1.2230944E1,1.857313E1,1.2402047E1,8.1145615E1,1.7019545E0,2.2533226E0,3.239565E0,1.1789688E0,1.0188642E0,1.9712888E0,9.274116E0,1.810258E1,2.326508E0,9.904435E0,7.5037665E0,1.1069363E1,4.0433497E0,8.358697E0,6.47309E1,1.641471E1,1.0222691E0,1.2310535E0,6.1641397E0,3.1099756E0,1.2943796E1,5.158784E0],"tree_param":{"num_deleted":"0","num_feature":"7","num_nodes":"41","size_leaf_vector":"1"}},{"base_weights":[4.292023E-3,-1.2663643E-2,4.1068605E-1,1.1432972E-1,-8.9114115E-2,7.2391346E-2,1.3094367E-1,1.4461859E-1,-4.77591E-1,-1.4295704E-2,-2.256363E-1,-3.2371487E-2,4.151775E-1,1.02018245E-1,5.711842E-1,-1.0547644E-2,-6.43151E-2,7.904847E-2,-1.3519712E-1,-3.674628E-1,2.30462E-1,5.714584E-2,1.0022904E-2,1.4220542E-2,-6.1972726E-2,1.5353054E-2,9.194008E-2,-2.1126188E-2,1.7621135E-2,-5.940616E-3,-6.407121E-2,-4.3803066E-2,2.981016E-2,9.5756695E-2,-2.5147839E-2],"categories":[],"categories_nodes":[],"categories_segments":[],"categories_sizes":[],"default_left":[0,0,0,0,0,0,0,0,0,0,0,0,0,0,0,0,0,0,0,0,0,0,0,0,0,0,0,0,0,0,0,0,0,0,0],"id":32,"left_children":[1,3,5,7,9,-1,11,13,15,17,19,-1,21,23,25,-1,-1,27,29,31,33,-1,-1,-1,-1,-1,-1,-1,-1,-1,-1,-1,-1,-1,-1],"loss_changes":[1.1487731E0,1.5663233E0,4.902475E-1,1.1567836E0,1.0244756E0,0E0,7.479459E-1,1.0044813E0,1.2842977E-1,7.5622565E-1,2.3843846E0,0E0,1.0807967E-1,1.6657234E0,5.9951854E-1,0E0,0E0,1.106586E0,1.0788268E0,1.4223709E0,3.4111555E0,0E0,0E0,0E0,0E0,0E0,0E0,0E0,0E0,0E0,0E0,0E0,0E0,0E0,0E0],"parents":[2147483647,0,0,1,1,2,2,3,3,4,4,6,6,7,7,8,8,9,9,10,10,12,12,13,13,14,14,17,17,18,18,19,19,20,20],"right_children":[2,4,6,8,10,-1,12,14,16,18,20,-1,22,24,26,-1,-1,28,30,32,34,-1,-1,-1,-1,-1,-1,-1,-1,-1,-1,-1,-1,-1,-1],"split_conditions":[1.1E2,2E0,3E1,6.1E1,4E0,7.2391346E-2,1.24E2,5.3E1,4E0,3.1E1,2E0,-3.2371487E-2,1.4E2,4.9E1,3E0,-1.0547644E-2,-6.43151E-2,1.3E1,6.9E1,5.7E1,1.3E1,5.714584E-2,1.0022904E-2,1.4220542E-2,-6.1972726E-2,1.5353054E-2,9.194008E-2,-2.1126188E-2,1.7621135E-2,-5.940616E-3,-6.407121E-2,-4.3803066E-2,2.981016E-2,9.5756695E-2,-2.5147839E-2],"split_indices":[2,0,4,4,3,0,2,4,6,4,5,0,2,4,6,0,0,2,2,4,2,0,0,0,0,0,0,0,0,0,0,0,0,0,0],"split_type":[0,0,0,0,0,0,0,0,0,0,0,0,0,0,0,0,0,0,0,0,0,0,0,0,0,0,0,0,0,0,0,0,0,0,0],"sum_hessian":[1.6495926E2,1.5928247E2,5.676781E0,5.966925E1,9.961322E1,1.9290447E0,3.7477365E0,5.7483475E1,2.1857772E0,6.506195E1,3.4551266E1,1.38823E0,2.3595066E0,5.3390614E1,4.092861E0,1.1771314E0,1.0086458E0,3.691061E1,2.8151342E1,2.6504017E1,8.04725E0,1.0326458E0,1.3268607E0,5.1335213E1,2.0554013E0,2.5160255E0,1.5768358E0,8.961244E0,2.7949368E1,2.545277E1,2.6985726E0,2.4272356E1,2.2316606E0,2.814343E0,5.2329073E0],"tree_param":{"num_deleted":"0","num_feature":"7","num_nodes":"35","size_leaf_vector":"1"}},{"base_weights":[4.207759E-3,2.3782517E-1,-2.3804467E-2,3.375206E-1,-2.3891501E-1,-4.7462672E-1,-8.186902E-3,8.595022E-2,6.1997485E-1,-7.236257E-2,3.5955347E-2,5.997421E-3,-6.814169E-2,1.8895039E-1,-5.5464227E-2,4.5634535E-1,-5.3286636E-1,3.4343332E-2,1.13046646E-1,4.3257234E-1,-2.0964865E-1,3.598624E-2,-2.1753207E-1,-3.43718E-2,6.829869E-2,-1.0051496E-1,1.7651146E-2,-1.7109722E-2,3.480021E-2,8.9410596E-2,2.538242E-2,-1.0676525E-1,1.3347472E-2,1.2108608E-2,-1.6516078E-2,-2.9772481E-2,1.9131958E-2],"categories":[],"categories_nodes":[],"categories_segments":[],"categories_sizes":[],"default_left":[0,0,0,0,0,0,0,0,0,0,0,0,0,0,0,0,0,0,0,0,0,0,0,0,0,0,0,0,0,0,0,0,0,0,0,0,0],"id":33,"left_children":[1,3,5,7,9,11,13,15,17,-1,-1,-1,-1,19,21,23,25,27,-1,29,31,33,35,-1,-1,-1,-1,-1,-1,-1,-1,-1,-1,-1,-1,-1,-1],"loss_changes":[1.0873055E0,9.2606604E-1,1.0416411E0,1.0215051E0,1.3224521E0,5.885867E-1,1.3576304E0,2.342979E0,2.0432966E0,0E0,0E0,0E0,0E0,2.827743E0,1.7471869E0,1.3716075E0,1.4812102E0,3.3500868E-1,0E0,1.2431879E0,3.488565E0,1.318897E0,1.4495966E0,0E0,0E0,0E0,0E0,0E0,0E0,0E0,0E0,0E0,0E0,0E0,0E0,0E0,0E0],"parents":[2147483647,0,0,1,1,2,2,3,3,4,4,5,5,6,6,7,7,8,8,13,13,14,14,15,15,16,16,17,17,19,19,20,20,21,21,22,22],"right_children":[2,4,6,8,10,12,14,16,18,-1,-1,-1,-1,20,22,24,26,28,-1,30,32,34,36,-1,-1,-1,-1,-1,-1,-1,-1,-1,-1,-1,-1,-1,-1],"split_conditions":[2E0,7.8E1,7E0,3.4E1,3E0,2.4E1,3E0,3E1,3.6E1,-7.236257E-2,3.5955347E-2,5.997421E-3,-6.814169E-2,2.9E1,4E0,2.4E1,1E0,3E0,1.13046646E-1,1.2E1,3.8E1,3.5E1,6.5E1,-3.43718E-2,6.829869E-2,-1.0051496E-1,1.7651146E-2,-1.7109722E-2,3.480021E-2,8.9410596E-2,2.538242E-2,-1.0676525E-1,1.3347472E-2,1.2108608E-2,-1.6516078E-2,-2.9772481E-2,1.9131958E-2],"split_indices":[6,2,2,4,3,4,1,4,2,0,0,0,0,2,3,4,6,1,0,2,2,4,2,0,0,0,0,0,0,0,0,0,0,0,0,0,0],"split_type":[0,0,0,0,0,0,0,0,0,0,0,0,0,0,0,0,0,0,0,0,0,0,0,0,0,0,0,0,0,0,0,0,0,0,0,0,0],"sum_hessian":[1.6428429E2,1.6787683E1,1.474966E2,1.4125747E1,2.6619377E0,3.9544837E0,1.4354211E2,8.1612E0,5.964546E0,1.3552037E0,1.306734E0,1.3010194E0,2.6534643E0,2.718583E1,1.16356285E2,5.269607E0,2.891593E0,3.2748926E0,2.6896536E0,1.6820179E1,1.036565E1,7.488096E1,4.147533E1,1.0492162E0,4.220391E0,1.4855868E0,1.4060062E0,2.2534423E0,1.0214504E0,3.5784528E0,1.3241727E1,2.3579252E0,8.007725E0,5.2898895E1,2.1982063E1,3.49015E1,6.5738273E0],"tree_param":{"num_deleted":"0","num_feature":"7","num_nodes":"37","size_leaf_vector":"1"}},{"base_weights":[3.6758468E-3,-1.2180424E-2,3.846859E-1,1.06151E-1,-8.387719E-2,5.256563E-1,-6.621661E-3,1.7558897E-1,-1.4834608E-1,-3.8178965E-2,-2.8942594E-1,7.35551E-2,6.470038E-3,2.149253E-1,-3.3626103E-1,-5.738393E-1,1.5574755E-1,-1.0426367E-1,4.2791837E-1,-5.8980596E-1,5.3283525E-1,5.1254868E-3,4.017826E-2,-5.9032142E-2,6.5432712E-3,-8.1270374E-2,2.031079E-2,5.034699E-2,-8.2023256E-2,-2.5443751E-3,-4.4730876E-2,5.363658E-2,-1.703631E-2,-2.430192E-3,-1.0198283E-1,8.123622E-2,-2.2256453E-2],"categories":[],"categories_nodes":[],"categories_segments":[],"categories_sizes":[],"default_left":[0,0,0,0,0,0,0,0,0,0,0,0,0,0,0,0,0,0,0,0,0,0,0,0,0,0,0,0,0,0,0,0,0,0,0,0,0],"id":34,"left_children":[1,3,5,7,9,11,-1,13,15,17,19,-1,-1,21,23,25,27,29,31,33,35,-1,-1,-1,-1,-1,-1,-1,-1,-1,-1,-1,-1,-1,-1,-1,-1],"loss_changes":[9.988261E-1,1.3574274E0,4.5466316E-1,1.0936391E0,9.239235E-1,4.5009434E-1,0E0,1.037115E0,1.8350861E0,2.588383E0,4.748353E0,0E0,0E0,1.3590226E0,4.274386E-1,1.2483126E0,3.350197E0,1.9660649E0,7.694613E-1,3.2881951E0,1.3060082E0,0E0,0E0,0E0,0E0,0E0,0E0,0E0,0E0,0E0,0E0,0E0,0E0,0E0,0E0,0E0,0E0],"parents":[2147483647,0,0,1,1,2,2,3,3,4,4,5,5,7,7,8,8,9,9,10,10,13,13,14,14,15,15,16,16,17,17,18,18,19,19,20,20],"right_children":[2,4,6,8,10,12,-1,14,16,18,20,-1,-1,22,24,26,28,30,32,34,36,-1,-1,-1,-1,-1,-1,-1,-1,-1,-1,-1,-1,-1,-1,-1,-1],"split_conditions":[1.1E2,2E0,4E1,4E0,5.3E1,3E0,-6.621661E-3,5.5E1,2.1E1,4.1E1,4.2E1,7.35551E-2,6.470038E-3,3.1E1,2.5E1,5.5E1,2E0,2.9E1,4.4E1,3E1,5.4E1,5.1254868E-3,4.017826E-2,-5.9032142E-2,6.5432712E-3,-8.1270374E-2,2.031079E-2,5.034699E-2,-8.2023256E-2,-2.5443751E-3,-4.4730876E-2,5.363658E-2,-1.703631E-2,-2.430192E-3,-1.0198283E-1,8.123622E-2,-2.2256453E-2],"split_indices":[2,0,4,6,2,6,0,4,2,2,4,0,0,4,2,4,5,2,4,4,4,0,0,0,0,0,0,0,0,0,0,0,0,0,0,0,0],"split_type":[0,0,0,0,0,0,0,0,0,0,0,0,0,0,0,0,0,0,0,0,0,0,0,0,0,0,0,0,0,0,0,0,0,0,0,0,0],"sum_hessian":[1.6355466E2,1.579494E2,5.605256E0,5.9412277E1,9.853713E1,4.1439137E0,1.4613423E0,4.692039E1,1.2491886E1,8.158471E1,1.6952421E1,2.4380493E0,1.7058645E0,4.411054E1,2.809851E0,4.8369255E0,7.65496E0,7.213368E1,9.451029E0,1.2623599E1,4.3288217E0,2.4193487E1,1.9917053E1,1.433574E0,1.3762771E0,3.66434E0,1.1725855E0,6.0010457E0,1.6539147E0,5.9529926E1,1.2603753E1,8.088379E0,1.3626505E0,5.9091897E0,6.71441E0,3.1045952E0,1.2242266E0],"tree_param":{"num_deleted":"0","num_feature":"7","num_nodes":"37","size_leaf_vector":"1"}},{"base_weights":[2.6115223E-3,2.1798281E-1,-2.2930061E-2,3.1238887E-1,-2.317073E-1,-4.478475E-1,-8.398762E-3,7.2135516E-2,5.840847E-1,-6.726736E-2,3.251153E-2,5.713862E-3,-6.494348E-2,1.7336091E-1,-5.212447E-2,4.1978374E-1,-5.052157E-1,2.5136497E-2,1.0830351E-1,3.9614394E-1,-1.9890067E-1,2.9379668E-2,-1.9844289E-1,-3.2928955E-2,6.355884E-2,-9.441613E-2,1.5795086E-2,-1.7200263E-2,3.298133E-2,1.569656E-2,7.2765395E-2,-1.0255571E-1,1.2250266E-2,1.0735177E-2,-1.5664E-2,-2.7877688E-2,1.3719539E-2],"categories":[],"categories_nodes":[],"categories_segments":[],"categories_sizes":[],"default_left":[0,0,0,0,0,0,0,0,0,0,0,0,0,0,0,0,0,0,0,0,0,0,0,0,0,0,0,0,0,0,0,0,0,0,0,0,0],"id":35,"left_children":[1,3,5,7,9,11,13,15,17,-1,-1,-1,-1,19,21,23,25,27,-1,29,31,33,35,-1,-1,-1,-1,-1,-1,-1,-1,-1,-1,-1,-1,-1,-1],"loss_changes":[9.056305E-1,8.133308E-1,9.055761E-1,9.27261E-1,